4799 10
0 0.99632174 2.0563052 -0.72112525 3.789005 -4.6471505 -2.838667 -4.621025 4.180826 3.625088 3.2602801
1 0.56997144 2.0779755 -0.92252356 3.666298 -3.565027 -1.7691168 -4.1840153 2.7072327 2.7299426 3.287747
2 0.6998067 1.9657199 -1.1403253 3.590365 -3.225379 -1.8065209 -3.7088938 3.0503156 2.587578 2.9839132
： -1.4010643 0.429545 -1.009093 -0.26436123 -0.30981153 -1.2194678 0.5247827 -0.7354282 0.022325259 0.82963353
大 -2.553577 -0.08715447 -0.702909 -0.23393676 0.092370346 0.1355362 -1.4777032 -0.018756073 -0.25178736 0.8226477
国 -2.768552 -0.1719781 -0.49820346 0.035132907 2.2362468 -1.0183007 -0.93660283 -1.6386367 2.9511302 1.6037856
图 1.8495467 2.562801 -1.37931 0.84212106 -1.7637118 1.0641108 3.9272454 5.389463 1.0325578 0.20202662
( 0.8297827 1.1202729 -0.5200409 -0.1375907 -1.7705966 1.810588 1.2723715 3.4382596 0.4880785 0.6591509
) 2.529915 3.390374 -1.9398899 1.0629867 -2.9802215 1.8129864 4.696238 7.539175 1.7572589 0.59586823
3 1.8215626 1.8114418 -0.8652916 4.514105 -3.0295668 -1.1830312 -3.1537428 2.3727732 1.7989969 2.0392861
人 0.29468253 -0.16003346 1.7997174 -1.3557069 -0.40240258 0.61199373 -0.59965307 1.0342087 0.5884931 1.9804341
年 -1.040085 0.7225214 -0.7341841 0.9827389 -1.7828206 -1.2108634 -4.292729 1.4667608 1.4555542 4.3681693
5 1.314206 1.9686649 -0.546242 4.1548977 -4.282253 -1.9828572 -3.8117456 2.9300466 2.2727995 2.061724
中 -3.459122 0.7487687 -0.83160603 -0.2947616 0.69374484 0.41612807 -1.0295686 -0.23917037 1.4578317 1.0921248
新 -2.1254797 0.22856526 -3.1333702 0.76126266 -0.62456185 0.9105255 -0.40408075 -0.79567784 0.002383377 0.4977586
9 -0.1272608 3.0540519 -1.3174089 3.9286115 -4.577399 -1.7265503 -4.1632433 3.598294 2.6944175 3.2911575
生 -3.8876 1.7791134 0.47756472 -2.9243412 -0.37476906 1.728405 -0.16221237 1.9528239 0.3309168 2.6885629
金 -2.87867 0.45926884 -0.8981012 2.1180644 -3.174991 -1.571561 -1.2860042 -3.0560513 1.771407 -2.9786239
高 -4.207493 2.2378476 -1.1669021 -0.30424467 -1.9471307 -0.41733882 -1.7461264 0.6145608 -0.14799552 1.9616137
《 1.4709458 -2.540035 -1.670683 0.43974748 2.9696171 1.2239099 1.2858529 0.12511669 -1.816579 0.3221208
》 1.4307992 -1.1001694 -2.2895389 1.256498 1.3884201 0.80784047 -0.15253828 0.31432122 0.34885022 2.0811243
4 1.3714211 1.9155818 -0.46880853 4.3195662 -3.2936904 -1.4808081 -3.715032 2.6818576 1.8480035 2.2239895
上 -2.3030813 -1.7406899 -1.4004401 0.015571148 -0.7458945 1.2012241 -3.201848 -0.9196018 0.38034302 0.56753707
8 0.7520012 2.205158 -1.0155631 4.0595117 -4.105616 -1.6285521 -3.9946558 3.4805293 2.5330362 2.4774933
不 -0.6859838 1.1202307 2.3778632 -1.7460582 -1.4716678 0.66912675 1.2497792 -1.762291 -2.4248285 1.1336076
考 -3.7519915 0.37293378 -3.3436468 -3.765576 -3.1804967 -2.1853364 -1.7913419 -0.21919473 1.5114789 6.775832
一 -1.6603029 2.1946745 0.042380173 1.5216818 -0.1268325 0.9113872 -1.830497 -0.24601918 -1.7577679 2.8729944
6 1.2166295 1.8461385 -0.66024786 4.0276318 -3.93198 -1.5879802 -3.8602705 3.0576289 2.2724106 2.1823568
日 -0.8314689 0.6631784 -3.4356847 2.266882 -2.7039874 -0.10196163 -3.5899262 -0.43979284 2.9619424 3.5565927
元 0.2187326 0.624559 1.3380007 1.1831994 -3.8515275 -3.2554266 -2.5959752 2.6207461 4.684871 0.45109296
开 -2.261809 1.878455 -3.8859093 2.0671463 -1.4135339 3.328448 -1.5072027 -1.1768839 2.208598 2.4301627
美 -1.9311631 1.7131575 0.7079501 0.9649372 0.28523484 -1.8257151 -0.8193807 0.39882863 2.3054461 0.90053153
价 -0.53077215 1.9031549 0.39080995 5.041409 -6.3913436 0.51226974 -4.4414153 -1.1508714 1.2209431 -1.8751634
发 -0.30938184 -1.6340717 -2.923733 -0.3265046 -1.7604204 1.5279988 -0.68585294 -2.5281732 3.2147899 1.0813835
学 -4.2641954 0.029408079 -0.13681935 -4.1392307 -0.8279389 -1.2117896 -1.3275617 2.4773088 1.47962 3.2929833
公 -0.4030765 -1.916055 -3.0036886 -0.8362511 -2.0405953 -0.7955207 0.04409259 0.14865886 6.6840606 -0.3201942
成 -1.8854704 0.5481483 -0.14244917 -0.9637026 -1.8884827 -0.35907152 -1.1710893 -1.0392932 0.14392504 1.8716953
月 -0.43216473 0.7923472 -3.560962 2.8938262 -3.5426567 0.4462321 -5.6800337 2.5615504 3.9304504 4.8882294
将 -0.67834365 0.3727407 -0.17543468 -0.06667623 -1.2878613 0.8170006 -0.68418914 -2.421128 0.9361157 1.8102437
7 1.1237781 2.078615 -0.7396638 3.9179945 -4.1071267 -1.6544348 -3.7879658 2.867848 2.148368 2.5044355
万 0.42448974 1.4725382 2.6209898 1.994976 -3.558919 -3.2339704 -3.5895464 3.7799554 4.056882 0.8916664
基 -3.4455538 2.2331777 -0.07941721 3.547947 -3.1054215 -1.4524858 -1.1938022 -3.0701022 1.5362514 -3.49473
市 -4.1364317 -1.1137701 -1.5399739 1.0432417 -2.6449833 2.367396 -5.4386067 -2.600135 1.5798682 0.41971532
子 -0.64958644 -0.3619562 4.282821 -3.1174588 3.0581722 2.5510018 1.4950037 3.0382836 0.14624153 0.875644
出 -0.61525166 1.5731157 -0.5532791 1.1761591 -0.4360873 3.102235 -0.23816708 -1.3471389 0.8026104 1.5240628
行 -4.432489 1.5480803 0.37025878 -0.28121567 -0.053449966 3.6921973 -0.84624517 -3.4176972 2.348067 0.28838584
机 2.4338934 -4.1430655 -1.8036363 -1.4300232 -4.0262594 1.7161946 0.31611574 -2.5126376 1.0105011 -1.2608072
业 -5.446652 -0.95998514 -1.8109617 -4.20513 -4.0261235 0.13379447 -0.6129239 0.048199907 2.059604 -0.9613467
被 1.1972492 -1.0320326 2.936385 -2.5776997 -1.7448752 0.92292464 0.6325035 -0.017151458 1.7412002 0.50046295
家 -2.2580864 -0.30549255 -0.013213618 -2.035146 0.34431812 -0.43667877 0.55631477 1.4934921 1.4063423 0.08186455
股 -2.7083504 -1.2226726 -2.2199924 1.2944939 -5.497816 -2.0027378 -3.5907762 -2.1855664 1.3335153 -1.9360151
的 -0.75903195 -0.09772125 0.26236612 -0.71221733 0.35458046 0.7855148 0.17057048 -0.047157694 -1.5958531 1.0012742
在 -1.0185305 1.2506814 -0.30437395 1.3377254 -0.6979486 1.4500616 -1.0945188 -0.6204475 2.085618 1.0056875
网 1.134405 -1.9320664 -3.0200903 -1.1195083 0.97355294 2.7091954 0.017928941 -0.759527 5.0596495 4.0563107
女 0.8241154 -1.4573278 2.5280867 -3.42898 3.3465173 0.7472991 0.9430909 3.2202337 0.5843247 3.5523062
期 -3.3586824 0.8218306 -0.84113395 2.0629838 -4.7656603 0.9954251 -5.164522 -4.0833325 2.2039359 1.0615773
房 -3.013266 1.0971391 -0.6818158 1.476786 -4.065817 3.0496647 -2.2253163 1.3383658 2.0010498 -2.801291
平 0.6871658 1.9890125 0.47317138 5.2573447 -0.31826377 1.0260298 -3.7278564 2.3400383 4.8112097 1.3200725
名 -0.009201639 0.08934863 0.408515 -1.2774574 -0.7362206 -0.4641753 -1.6499807 1.1644558 3.4196684 4.1427507
三 -2.1760457 1.3534005 -1.2830502 1.8935881 0.54726726 -0.0652717 -2.1840568 0.25343627 -1.2934437 2.2404785
会 -2.0697613 1.6662682 -0.82584465 -0.93429035 -0.16430724 1.3595108 2.1027567 -3.8005624 0.75947076 1.7410473
- 2.8854141 2.826758 -1.3013831 7.129371 0.43094638 -1.8673755 -1.779723 1.9659259 2.9705443 2.722476
地 -4.0086784 -0.5857255 0.3764344 -0.07060839 -0.28251925 1.7320375 -1.9437693 -0.45877686 0.42191973 -2.240609
场 -1.7735096 -1.0671604 -1.5456929 0.68016005 -1.6492944 2.551504 -2.7158217 -2.5392761 0.37593707 0.5187983
全 -2.23753 2.7098343 -0.8107417 1.7803953 -0.31795654 1.5625707 -0.9363238 -1.1759865 1.3185016 1.9411083
小 -0.069008335 -0.7732299 0.23721088 0.5327614 0.8813099 0.5602538 -0.63225424 2.242229 -0.051650383 -0.5659391
现 -1.224339 1.9547374 -0.8280708 2.6732504 -1.8423238 3.5080132 -1.0300295 -1.3958606 -0.28603977 -0.28472826
有 -2.1839395 1.7478205 2.7429476 -0.6396534 -1.2626618 1.0588198 -0.5441366 -1.6854323 -2.0944538 0.7636905
分 -0.48788583 0.47494197 -0.8079677 -0.87899184 -3.0162742 -0.6717994 -1.5167309 1.0202461 0.5894386 2.7361138
后 -0.5453597 -0.29635462 0.68370825 -0.689776 -1.3866162 2.1813128 -2.2794755 0.48229268 -1.3326573 2.2684245
称 -0.3551825 -0.04873685 1.1602618 -2.228291 0.59517413 -0.8373969 1.985408 -1.5393063 1.1499642 1.7039557
组 0.46473357 2.0269692 -1.6100342 -0.039046768 -1.1251742 0.9944872 4.1091924 3.471565 1.1004858 -0.644619
为 -1.0555571 0.28549212 2.0406692 -1.60249 -0.38354138 -0.40118062 0.42615625 -0.51529896 -0.60743064 0.5634511
盘 -2.0185156 -1.4692954 -4.878355 0.74156064 -4.754198 1.8467586 -3.358489 1.1461916 -0.09321497 -0.022110874
下 -0.7275329 -0.94300824 -0.24933015 1.4232255 -1.8613285 0.48464444 -3.6562166 -0.176148 -1.2272031 0.56769973
最 -1.0175772 0.24702148 -0.85282737 0.4024938 -1.6460805 -0.027944554 -1.4151866 -0.3001156 -3.0198908 1.4966747
“ -0.58706576 -0.5693976 0.511108 -1.214385 0.5375298 0.71278495 0.3805089 0.24948165 -1.031079 0.7208939
” -0.09948289 -0.2543551 0.58285254 -1.33962 0.6040697 1.3740952 1.1792477 0.59567344 -0.86529845 0.7318712
手 2.3088787 0.47802445 -0.13575238 1.3232019 -0.086888604 2.8480406 1.1840605 -2.4764845 0.624197 1.7583227
天 0.67112297 -1.9187363 -0.42581272 1.2988249 1.6221554 0.33794713 -2.4895666 1.0560844 -1.0377514 1.4472334
本 -2.337974 1.2552596 -2.4637887 1.50483 -1.4634603 -1.6891245 -1.3292966 -1.0285288 1.2144881 1.268612
利 -1.0085262 -0.7385068 2.8459291 0.8646329 -1.8329052 -4.2563453 -1.7854578 -3.2082644 0.42204544 -1.514617
首 -2.1514058 2.6405602 -1.935304 2.449996 -0.35772324 0.7819845 -1.2663746 -1.3127089 0.3501757 2.4268007
战 0.77941805 -1.1592212 -1.5855376 0.7068367 1.8574083 0.8254538 -0.12700218 -3.9879744 -0.7848206 3.4844131
长 -3.0683472 0.38762334 0.9147805 -1.0570296 -0.27358064 -1.0457506 -1.305734 -1.011424 0.9543484 1.029377
游 -0.55077267 -6.576711 -4.0989337 -2.3427937 2.442272 1.6138265 0.30775616 -2.782899 -0.35100186 -0.39797628
动 -3.4814637 0.15861738 -2.5166059 -0.29544374 0.35621747 4.488702 1.6533908 -3.4163017 -0.98109126 -1.3884766
主 -2.7470589 1.5490998 1.8994174 -1.6575835 1.7807369 3.1631486 1.360802 -2.913505 0.4089221 1.5780436
海 -1.3494524 -2.5091202 -0.89755785 0.9348681 2.158967 0.110296555 -2.5842218 -0.9026048 2.2826319 0.18514158
起 1.0756406 1.750981 0.27418295 3.8859756 -1.2705228 1.5737053 -2.0599282 1.3154426 2.2338455 0.68531126
北 -3.3621874 -2.004879 -4.337875 1.1454678 1.8747823 -2.5872695 -3.4607146 0.69844407 3.890047 2.2469535
资 -2.902291 0.7348903 -0.39588732 0.5538663 -4.676442 0.29473048 0.33103392 -2.212707 2.6406384 -4.3326106
售 0.43186656 3.3021522 -1.8233439 5.634796 -5.356698 3.94791 -2.740652 -0.45538044 3.929176 0.24224557
能 1.2735348 0.8630405 0.798429 0.63883716 -4.2828317 -1.1752541 0.9062307 -2.1808705 -3.8977635 -0.107156545
重 -2.3980844 0.7641896 0.75322866 -0.93504614 -1.8831062 0.74257517 -0.39147753 -0.03127935 -1.4632177 -0.5305621
时 -0.007127394 2.05675 -0.6521563 1.6586599 -1.8567566 2.8115215 0.025659386 -0.630725 -1.5023855 1.1201661
男 1.8150942 -2.549647 2.616835 -3.682438 3.539027 0.65337276 0.5330253 3.9594567 1.465979 4.096112
力 -0.36880845 -2.6825128 0.6574489 -1.7391498 -0.97322947 -0.016443813 1.1781005 -4.2180176 -2.1980374 -1.8936656
居 -0.7089898 4.083377 -0.34408492 5.8403487 -0.028320502 3.0757284 -2.6567178 1.8916733 2.9746938 1.6793715
报 -2.4787016 1.6604872 -2.3026724 -0.80744195 -2.654929 -0.375557 -0.3885169 0.48925075 1.8272008 2.2724638
自 -0.18187213 -1.2581189 0.53027844 -4.217475 -1.1909429 -0.48273945 1.2955254 1.0709507 -0.2364087 2.1456592
点 -0.2946422 -0.050329775 -2.0079532 0.2144246 -3.156792 0.7988648 -2.2272613 0.22576766 -0.5791247 2.5034146
. 2.9814694 -0.63966054 0.5586178 5.0566177 -6.840735 -4.19378 -7.374893 2.2854621 3.8163316 2.1944191
布 0.8717751 4.4689198 -0.49231857 4.102254 0.96361417 1.2941766 2.0626278 -3.3416646 4.290222 2.7975147
C 3.3706856 -0.91831404 -4.271741 5.246465 -1.969247 -2.4583807 -0.20533246 -1.6541299 1.339917 -0.115243375
前 -1.7285914 2.3809412 0.11596355 0.5638409 -0.37086618 0.6800866 -1.1171669 -0.5267024 -0.41774797 3.2990324
推 -1.1335065 -1.1783352 -4.33198 0.9032054 -2.7517824 1.8740314 -2.9813013 -0.5938142 2.5771184 1.9008241
产 -5.4303656 0.80082977 0.5383218 -0.93408227 -2.7177896 2.8661351 -1.4303181 -0.8508113 1.8571699 -2.7440765
赛 -1.1764963 1.7386035 -1.6986467 2.4050682 0.8998686 -1.1026636 -1.0847902 -3.8407645 -0.414677 4.1525292
指 -2.266429 -2.6209078 -0.50609076 -2.4556801 -4.8454995 -1.1548973 -3.421546 -0.7066326 0.36209714 0.17586364
与 -0.3835028 -0.4394724 0.55111945 -0.7880809 1.2394066 -0.97246706 1.3391573 -0.92703915 0.21231541 0.36717045
P 4.8134446 -1.4834576 -5.1655626 4.826954 -3.3167014 -2.5463421 0.15090273 -0.90787107 0.82303077 0.6878994
是 -0.44077536 1.2513748 2.5540206 -0.91681147 -0.74933577 -0.014073847 0.74729633 -1.6795536 -2.9299564 1.531315
京 -4.7988696 -0.19421892 -3.2490127 1.0472654 1.8539152 -0.7789949 -3.0332584 1.9745133 2.8186698 1.4404181
方 -1.7804667 1.3322457 0.35863495 -0.39900762 0.6187485 0.47570223 0.8680964 -2.2838347 3.2016854 1.384047
商 -4.575142 -0.52026844 -2.1382408 -1.8299899 -2.1210883 1.515263 -0.16702369 -0.5408056 3.188427 -1.988292
S 4.61866 -1.6689845 -3.3625674 4.2028604 -2.311746 -2.6843307 -0.024915533 -0.24677421 1.7194796 0.12825257
多 -0.3355788 1.2678261 2.1555629 0.6578654 -1.2948699 -0.0026519105 -1.0473437 0.33863655 -0.9545769 0.552232
A 1.8887906 -1.283007 -3.7580805 3.214055 -3.7380645 -2.7284281 -1.288 -1.8998951 1.5040437 0.22161363
理 -4.6839404 3.969086 0.2895437 -1.4777168 -1.7791644 -0.4384318 3.4091506 -1.0355937 0.55345255 -0.9924182
内 -2.5656264 1.2803456 -0.71858597 0.9351212 0.18008481 1.3143342 -0.86272395 -1.1482034 1.2373681 0.588478
华 -3.3247666 1.4705412 -1.3972179 1.8631737 2.5941162 -1.8779919 0.93733454 0.43102673 0.5954336 -1.0861223
入 -2.2346418 0.0866432 0.81312 -0.4897618 -1.3712181 1.7136031 -1.8864498 -1.4853204 1.3107023 0.372947
对 0.18051197 -0.8208662 0.43187708 -0.87726545 -0.20965098 0.26631063 0.87483037 -4.5420594 -0.4091874 1.4567155
英 -0.3136326 2.3648722 -1.5305258 2.3691194 2.7482116 -1.8318318 0.74319965 0.024594385 0.7044581 3.7296944
可 -0.14975633 1.789803 1.278471 0.20578155 -3.41935 0.06923526 0.22264451 -1.5196989 -1.4389666 0.6423514
车 2.1610081 -3.2149887 1.9909947 0.3033676 -0.087478645 2.6483717 -2.2525 -1.6266845 3.8907301 0.0158874
联 -1.7368158 0.6859057 -2.9906406 1.1512586 2.2152846 -0.4584994 1.9500598 -4.497918 1.8606278 1.6181586
斯 1.913404 1.9048102 2.5113223 3.754741 0.99850506 -3.5236042 2.5489054 -4.2532463 1.6652219 -0.5578845
球 -0.5946476 -0.093295276 0.72345775 0.23371229 1.4262595 1.4407171 -1.692232 -2.4083695 0.2845525 3.4290745
部 -3.6583922 1.1409894 0.56611216 -0.81673837 0.272554 0.24837889 -1.0371768 -1.8054578 2.6608675 1.6223795
文 -0.76806635 2.2814991 -2.481687 0.5727873 1.1844918 -1.2233847 3.59587 1.0540162 0.09891564 1.139313
西 0.24918862 0.13662048 1.0288036 3.5599844 4.15591 -1.0848817 -1.6483989 -1.0013075 2.9131708 1.6043319
电 0.76611376 -4.038888 -2.521468 -1.7443256 0.6002453 1.6233556 1.2664331 0.2865624 1.9622538 -1.2529961
明 -0.45948526 1.1510149 -1.977736 1.3912086 0.66011065 -1.3994317 0.95298755 -0.5805976 -3.494928 1.9799747
加 -1.8019418 -0.86916846 -0.02873863 -0.032340728 -1.0468917 -3.4113178 -1.5825336 -4.247527 0.21339169 1.1431042
两 -1.9746548 1.2278893 0.9681334 0.70657647 -0.9307906 0.7546329 -2.6339462 0.46933258 -0.004196249 1.5591264
品 -3.7850327 -0.5305425 -2.04379 -0.9195617 -3.191352 3.407362 -0.16788733 0.6513207 1.1300739 -3.554396
工 -3.25067 -0.6071363 -0.40389875 -3.760432 -0.7934694 1.638635 0.92711097 -0.5550716 2.7216804 0.49729937
作 -3.2307312 0.17455238 -2.576204 -3.1677577 -0.6924362 2.0972764 3.1403403 -0.022302303 0.1358039 -0.2520359
度 -1.5499433 -1.3493153 -0.81096727 0.0033175193 -2.011066 -1.1279737 -2.8325026 -3.1682944 -1.0156239 1.5611382
死 4.636446 0.040985484 4.035252 -0.34864166 -1.9805673 3.0941386 -2.008274 3.0449617 2.335969 5.1067457
收 -1.513902 -0.7604048 -0.7300771 -1.2200626 -5.205127 -0.9560741 -2.2823327 -1.6320244 2.4725351 0.55953074
回 -0.92678183 -1.1150373 0.55592304 -1.4222616 -1.5356029 -0.66740644 -1.0763074 -3.6884456 -1.2937578 1.8539965
情 -0.3661934 -2.4173067 -0.34257454 -3.8341057 -0.36620495 2.3361847 2.1545892 -1.2001456 -2.9063673 0.3270892
招 -3.4955897 -1.1133498 -1.8986648 -4.2104154 -2.9601383 -1.9483919 -2.1815107 0.6493312 3.0869408 4.2389417
法 -1.2985578 0.38798502 0.7814427 -2.7086885 0.47475523 -0.36351153 2.156489 -1.8358182 3.3234785 1.9028883
i 7.243548 -0.9339786 -2.3151565 1.8860126 -4.5801344 -2.8217382 1.3095262 -0.4785619 1.0976212 5.049381
城 -2.7365177 -0.3054231 -1.9286153 2.0824177 1.2087042 0.25202188 -2.3135386 -0.06764295 1.5432096 -0.1924347
交 -4.018775 2.6288354 0.79970586 1.0686202 -0.9467636 2.869117 -1.5256652 -3.3361766 4.2914467 0.5569962
通 -1.5286093 -3.1029227 -2.720015 -1.652678 -2.1070137 -3.0117788 -1.336664 -1.9884956 1.5500745 0.47772712
东 -2.6454742 -1.2586504 -2.1620588 1.5821573 1.6945429 -2.539178 -2.2404785 -0.8794186 2.80017 0.27329278
周 -1.5289325 -0.45215577 -2.428877 2.1991649 -0.45598426 -0.8856445 -3.5295534 -0.513022 -1.1341543 2.0365882
强 -0.65254813 -0.7733566 1.4135704 0.18693049 -1.1002731 -0.44707024 -1.5934315 -2.8731909 -1.7607367 0.3243616
民 -4.1556845 1.5704664 1.7375807 -1.174732 0.11435909 3.3755176 -1.0825245 -0.06904386 3.575042 0.20136416
之 -0.061679292 -0.94006175 -0.021829901 -0.192007 2.3766108 1.3179744 0.32169548 -0.16157763 -1.9677539 1.2582527
数 -2.297591 0.20168443 0.17258856 -1.5831168 -5.558255 -0.5010661 -2.8401709 0.72590804 -0.3166431 0.91383666
打 1.2142358 -0.94206315 1.7435459 -0.88854265 -0.45361823 3.1465964 -0.12443607 -0.48240018 0.3554546 0.7172134
亿 0.28119266 0.45513928 2.15297 2.6675334 -4.7408442 -4.110365 -5.079753 2.2694476 5.88828 0.63040406
科 -2.5089047 1.2567587 -0.2437469 -0.14778937 -1.105342 -5.761331 -0.010434838 -0.030117637 0.74648315 1.0614133
用 -0.5984067 0.50016195 0.4506509 -0.6891392 -1.5963327 1.4199519 1.446514 -0.97686756 2.3523984 -1.0970541
经 -3.999879 -1.4366826 -3.255364 -3.0706694 -1.9065647 -4.050725 1.241359 -3.5131526 -0.5001863 0.5294096
% 1.5659827 -0.66655904 0.97560203 3.3296883 -5.0912743 -3.302568 -6.4734774 0.98630375 3.6525679 2.3476932
线 -0.47900975 -1.1869981 -1.1094501 0.9152348 -1.6763172 1.1748152 -2.8292549 -1.5885179 0.97270936 1.1608351
第 -1.1616646 1.7352678 -1.7783574 2.824639 1.0303506 -0.6252592 -3.8654761 -1.0499035 0.8931164 6.5313163
合 -1.8041432 0.42262486 -2.8214896 -1.2910014 -1.0444957 -0.66701657 2.3357425 -2.019897 1.4872036 0.7435299
马 2.8105617 -1.1233585 2.7709317 2.4567838 3.045842 -1.5316279 0.4002469 -2.7143583 -0.5057646 0.4236566
O 5.3268046 -3.444498 -6.0410805 5.543326 0.9990301 -2.0984616 0.9958177 -0.000758263 0.81901246 -0.11455818
山 -2.4272795 -0.20351037 -0.42739034 3.4982393 2.920309 0.6431258 -1.8365107 1.0780025 0.71794164 -2.3982518
调 -1.6901494 -2.1204038 -1.450123 -2.0082216 -4.8018317 -1.769544 -1.6922716 -5.2980065 0.1718067 1.0967377
超 -0.37184882 0.19993374 -0.38323152 2.0230224 -2.129332 -1.807027 -2.8161247 -0.8898138 -1.2281218 1.2121005
体 -0.44139874 -2.038089 -2.7822876 -3.7327728 -0.90203387 -0.58228296 2.8334272 -1.299654 1.2379805 1.3179659
o 8.178173 -5.291283 -4.3262763 0.27513164 -1.4909472 -5.4571066 1.0119535 0.85050863 0.9773376 6.7103596
世 -1.4642428 0.9540192 -4.701317 0.6715807 3.837617 -0.6324302 2.0266366 0.20910674 -1.3754452 4.39738
专 -5.9084463 4.2926025 -0.31191003 -1.3469782 -0.025288882 1.204502 1.3218768 -0.03350454 3.1676273 1.6557138
员 -2.6460617 1.9135965 1.4607277 -2.9101965 0.18379077 2.613062 1.553968 -2.3475666 3.1274147 3.1185925
总 -2.4968076 2.4210322 -0.79620403 -0.016070917 -1.7596688 -2.37612 0.7448383 -5.0359416 3.202815 2.8169055
个 -0.94949 0.518215 -0.32277417 0.52601796 -1.6446959 0.27587748 -3.5791574 1.0652937 0.6306286 3.4846013
无 -0.041110523 1.4913133 1.9710116 -0.40750638 -0.89106935 1.0792416 0.99397606 -1.4837192 -1.3562254 1.1623926
要 -2.2633781 0.26821178 2.7359502 -3.7893636 -1.5914493 -0.5899083 1.1455204 -2.488377 -1.1864455 1.2512289
D 4.8981957 -1.7987587 -4.282318 5.25249 -3.852834 -1.6665425 -0.8193289 0.21315974 1.5659482 -0.81265056
e 5.2745476 -1.4294001 -2.705655 1.1045188 -1.7261469 -2.128733 1.0516918 -0.39671803 1.8928198 4.976775
外 -2.2102907 -1.4087954 -0.12290791 -1.6853839 1.0408899 0.77753997 -0.4176083 -1.760045 1.7677426 0.58361024
定 -1.1276839 2.808907 0.51730645 0.3080412 -3.7415643 -0.7659036 0.75820297 -3.9839976 0.47676513 1.3410664
级 -1.8732605 0.29199767 -2.1071367 1.503629 -2.560299 -1.5232546 -3.5128105 -2.1683738 -0.9346166 2.7909808
老 -0.61796993 0.36634806 2.7774136 -1.4142859 2.4216413 1.6461716 0.1351372 3.37716 1.9486268 1.3035723
传 1.9567051 -0.7730906 -2.2405596 -0.031472012 3.1071117 0.8361927 3.7193053 -1.8719358 0.30125445 2.1761732
军 -1.2125794 0.85915726 1.8013947 1.0765835 2.8961074 0.8816427 -0.63645166 -2.885521 1.1951665 2.0245457
信 -1.4512354 -0.7798027 -0.23896073 -1.2737635 -1.527282 -0.71624947 1.4879818 -1.7373091 2.239449 -2.1051617
试 -3.3119226 2.0227516 -4.783071 -2.5307617 -3.2080808 1.2321808 0.8988568 0.69439 0.3614814 4.724786
再 -0.7340448 0.82855046 -0.20385785 1.2913046 -1.518172 1.1429827 -1.1666775 -2.0933073 -1.4493018 0.9120726
王 0.05286163 -0.6507991 1.3207664 0.7012034 3.2516327 0.029737335 1.079116 0.42449257 -1.523672 -0.810078
建 -4.962641 2.038089 -0.70045656 -0.3777756 0.8594659 0.35568398 0.35046986 -1.2638664 2.6527772 0.14196987
持 0.2208635 -2.6892273 3.3997977 -1.6035564 -3.2303088 -2.8070025 -2.8441453 -3.1367185 1.2848333 0.23027594
星 0.22989658 -1.8438246 -2.1433043 1.1820928 2.7959712 0.20930655 -0.3015579 -0.17045039 -1.5916872 1.1130902
热 -0.9109764 0.9937692 -0.7838886 1.4124562 -0.3000713 5.2533445 -0.73721606 -0.45273978 -1.2977624 0.63852954
遭 1.0475354 -1.6853255 3.0221815 -1.3732964 -0.08700034 1.6793019 0.08379345 -1.1691599 1.5702132 -0.3356708
进 -1.6336025 -0.6835738 -0.47806618 -0.36712933 -0.6366107 1.6191142 -1.8034172 -2.9735675 1.2422507 1.6662743
获 -0.529832 2.3031209 2.362274 -0.07603233 -2.3879635 -0.98652947 -0.265314 -0.39333043 1.2864732 1.348926
心 -1.4056286 -0.8806294 -0.039998777 -2.4584064 0.25588733 0.62954426 1.9760964 -1.0492992 -1.299758 -0.21391906
巴 2.5496335 -1.5837989 2.5800169 3.2200394 2.0181265 -4.6009073 0.21059176 -6.271431 0.76090634 0.23656529
亚 -2.002744 1.8366963 1.7922482 3.758846 2.7296708 -2.078986 -1.1463362 -3.6955853 0.62855583 0.40961176
I 2.8490975 -1.7809099 -6.089577 5.124122 -4.188768 -3.0798872 -0.3093354 -3.0466785 0.20633164 -0.83759755
比 -0.50217986 2.6892586 2.509331 3.008552 -0.5444039 -2.3876512 -1.256723 -2.2291017 -0.73600113 1.1500119
投 -1.6471736 -0.84502536 -0.47509125 -0.050461043 -3.9961717 -0.4799174 -1.0023088 -3.5904028 3.9730985 -1.8086779
四 -3.5934148 1.6662884 -1.1968739 1.4959065 0.11366192 -0.79238254 -2.9636843 0.34864077 -1.6850256 2.604768
门 -0.2459607 -2.1874363 -0.26611525 -1.233862 -0.23952267 0.8293206 -1.7720377 -0.7074492 1.5054971 1.6089247
涨 -0.9953683 -2.9596198 -0.009132698 1.8683299 -5.1793914 -0.3688615 -6.699242 -1.1851684 -0.9286938 -0.9733016
戏 1.6803976 -0.7676143 -4.0947957 0.21875118 1.8626719 4.9680843 1.6938517 0.13081826 2.6789486 3.7237043
身 1.2102085 -1.6603068 0.057468235 -1.0078096 -2.452804 2.6447446 -0.59255695 1.6274562 -1.1986369 -0.28344554
保 -3.1435096 1.3268932 4.357197 -0.9162015 -0.58317244 -0.25668797 -0.34251016 -1.2565421 1.8670737 -1.7203286
尔 2.6923988 -0.2737183 3.0118115 3.304543 2.995528 -4.1348658 1.1653287 -2.7160153 0.6778857 -0.15244366
光 0.40622035 -3.7955952 -1.6898859 -2.0336146 -0.6242487 -1.6676595 0.98170733 3.6287098 -3.2032924 -2.1022208
安 -2.4142637 1.6901459 1.3300002 0.7407742 1.6843354 -0.37517232 -0.26668355 -1.0810833 2.7054217 0.83176845
评 -2.7309375 0.70083535 -3.934301 -0.51954067 -4.719002 -1.9741478 -0.7584569 0.060312685 -0.69957095 1.0946603
研 -3.942268 4.053747 -2.1601334 -2.4524665 -2.331463 -1.9301099 0.41718012 0.66451174 2.2553735 7.1055126
受 0.37679777 0.85877985 2.5775495 -1.3355435 -3.0610175 0.4531159 -0.12248761 0.02721363 -0.16670355 1.021742
计 -0.86629635 1.3791451 -3.2970545 -0.15554556 -5.4443083 -1.0515449 -1.7377806 -4.066845 5.302802 5.252122
来 0.16120414 -0.2587671 1.3127985 0.23760763 -0.62065744 0.39630887 -2.0742083 -1.7186666 -2.444743 2.79626
台 -0.82153285 -1.4305458 -1.9463689 1.5384587 1.3008642 0.5161694 -1.0626335 2.314685 3.0079517 -1.5002095
续 0.07573055 -3.3295155 3.7397754 -1.8673337 -1.972668 -1.459246 -4.2070756 -2.5412705 0.51824296 1.6452122
事 -1.0968056 1.4639453 4.1237283 -1.8543333 0.50077647 2.6364162 3.4670866 -1.9635907 1.9735281 -1.7165452
特 0.026231993 2.7041204 1.0451721 2.7897775 0.3491947 -0.94737744 1.958618 -0.98411524 0.17497481 -1.0902835
预 -3.8588297 4.0118713 -4.3916664 1.8677672 -4.505651 0.30597275 0.15907846 -0.8312967 1.9588648 0.62480015
面 -0.71172327 -0.2667147 -2.0330813 -0.012939192 -1.3065796 2.1367123 -0.34155333 -2.1127868 -0.55667365 1.4907702
a 7.7245917 -2.590395 -2.5892663 0.54845726 -3.3368304 -4.7104707 2.6416874 -0.53237766 1.3701112 4.8264394
T 3.4955933 -1.3931175 -5.050519 4.6570053 -3.4446127 -2.827698 -0.19292362 -1.2277783 1.7660221 -0.33337882
关 -1.8612729 4.1191106 0.6349185 0.49358758 -2.0436792 2.639404 1.3927704 -0.97892207 -0.66103405 1.1682922
政 -7.222235 5.8597794 0.9404927 0.28663418 -0.38336337 0.7764888 1.5575627 -3.7957644 2.409348 0.29926726
校 -4.807992 0.9735216 -0.34904668 -3.536183 -1.3065659 -1.0613074 -1.8426801 1.8000734 2.879361 3.929052
者 0.35668603 -0.7855139 1.6514734 -2.7499259 -0.858228 1.0762845 1.8033967 -1.2493228 0.10042231 0.6341228
司 -0.28847596 3.2441978 0.9712345 1.7895697 -0.8728216 2.951912 0.86736965 -3.445731 6.65816 1.7675045
增 -3.4155588 0.71388155 2.0189896 0.37831107 -3.7641811 -2.6323633 -4.106788 -3.3147202 1.2173742 0.79078835
n 5.7258506 -3.8165045 -3.7614486 1.520146 -2.8685427 -5.535017 -1.3908168 -0.20147021 -2.6826537 6.2336946
购 -1.5762907 -0.58452594 0.6569652 -0.8249794 -3.9411604 -0.53436667 -0.791652 -0.42472318 2.059089 -2.4915786
南 -2.5748942 -2.212193 -1.642893 0.06134608 2.3095565 -3.1204426 -2.4700441 -0.22835585 2.7533581 1.4513266
精 0.16684458 1.7904378 -2.7617898 3.984744 2.3514712 4.0156126 1.4679523 1.9438736 0.60447073 -0.35837922
二 -3.0754962 2.844846 -2.5260363 3.0024889 -0.39414245 -0.052067738 -2.6047275 -0.3496729 -1.2047278 3.1568165
选 -1.4499487 1.6487215 -1.7517759 0.2722841 -0.24294901 1.1715144 0.033413302 -1.9539952 -0.049183633 3.313293
火 2.948825 -2.6749659 -0.62062764 1.3197753 0.42105508 3.8618126 -2.0848336 -1.7140045 -0.25567427 2.4609978
港 -2.5138276 -1.951722 -0.62554055 0.10003388 -1.6362717 -1.9617258 -3.0357296 2.5199811 3.5558035 -2.0892658
队 -0.8304133 0.94973564 1.7953516 -0.28817105 2.517708 1.5553691 -0.3372906 -2.1401381 1.7078385 3.6110058
装 0.85965604 1.1960315 -2.7604394 3.0987706 0.9569069 4.781107 1.1508693 2.401175 2.0395432 -0.17614326
低 -1.8403261 0.36862352 -1.3596487 1.4825366 -4.6665716 0.58052635 -2.4594173 -0.5995316 -2.2492263 -1.1121768
跌 0.44116253 -2.9703732 0.5141196 2.1396196 -5.610395 -0.37103322 -6.5005503 -1.5250442 -1.3697727 -0.33792192
视 -1.387254 -2.349986 -4.3598943 -1.0654936 0.07749725 2.61944 1.5651482 -0.4074209 0.8141691 -1.2227311
G 3.7512803 -1.1098278 -4.160143 4.3818226 -2.712639 -1.3963982 -0.8912296 -0.27299228 1.9979115 0.6639757
升 -1.7406516 -0.74643344 -0.5755126 1.8086014 -3.3532853 -1.247941 -3.9295642 -2.6569927 -1.2811136 -0.030784056
证 -3.1086771 -1.1859305 -0.8446583 -2.8008614 -3.3440628 -3.103853 0.36570042 -1.6426482 2.4646182 -1.2341433
L 4.0119586 -1.9811748 -6.5730734 5.8173704 0.3987724 -0.803676 -0.54859954 0.99326295 -0.62184864 1.5398307
反 1.3950759 -1.6081823 0.37494132 -0.014532747 -3.2310286 1.2617851 -0.8861982 -5.3223157 -0.40631807 0.95308524
实 -1.82625 0.9721719 -1.4435455 -1.1911062 -2.3865628 0.3529174 2.077795 -1.2859175 -0.48945552 -0.5870971
变 -1.1328274 -1.248977 -0.6879855 -2.1180887 -1.3270718 1.7249268 0.8017133 0.22980288 -3.269386 -0.42040145
水 -1.0446632 -1.2092513 1.3412681 1.2070518 0.35423625 1.8062828 -1.6985804 1.9630737 -0.6466353 -3.1513498
德 -0.73780215 1.147038 1.647962 1.6963996 3.0178964 -3.2634263 1.8527707 -2.4117448 0.30813783 -0.11556338
均 -1.4620874 3.3614626 -1.1688956 6.0736656 -6.709571 2.642306 -4.9083366 2.2244 2.517182 -1.0754646
米 1.683348 1.3136219 1.5311508 5.914094 1.2072921 -0.8525654 -2.1475766 0.58600056 1.2915263 -0.6061136
尼 5.207016 -3.1791303 2.2470074 2.5803306 -0.35304102 -4.936075 1.1464742 -3.4761999 0.7810883 -2.0365622
阿 3.3236938 -1.0950998 2.1757798 0.62320316 3.0900807 -4.8160305 3.491341 -2.8302436 1.8293897 1.1058098
头 2.4289129 -2.8738205 1.2774575 0.8886099 -0.412934 1.3641233 -0.6898331 0.3238547 -2.170152 -2.0536616
提 -2.7907908 -0.07402428 -0.5432602 -2.158534 -2.5986373 -1.6196221 -1.1602489 -3.8837097 0.93567556 2.791107
楼 -2.216654 -0.5775544 -1.3747641 1.4364755 -1.9551063 4.4917064 -4.6250257 2.866093 1.4257802 0.0672516
次 -0.05708394 0.3737169 -0.35113534 0.93241525 -1.5738404 0.5539906 -3.1251385 -2.2980206 1.0511204 4.4885383
E 3.515157 -1.2516626 -5.291352 4.99045 -3.297027 -2.518702 -0.49994394 -0.54809225 1.8477392 -0.13020568
货 -4.3734355 0.87949806 -1.3122932 1.1753126 -5.471197 2.7701907 -4.0645466 -1.8440496 2.2235556 -1.087373
复 -1.8574966 -1.6866238 -2.4673991 -3.2080398 -2.2989235 -1.2789291 -0.22685131 -1.6233163 -1.3953818 2.571204
银 -3.3426297 -3.1367846 -1.3466035 -1.49071 -1.0595547 -0.9479334 -1.6705534 -2.9207509 3.941724 -1.7087462
相 2.7195432 -1.56452 -0.8010846 0.74078673 -0.23115836 2.1894338 0.8279049 -2.449645 -0.2547366 0.8844623
好 -1.4992963 1.1925659 1.930685 -1.2356428 -0.12665808 1.3919377 1.1199414 -0.643081 -2.4761708 0.42659673
务 -4.7173724 3.1414826 -0.305435 -2.034795 -0.5613382 3.4305837 1.8100849 -2.2447057 6.2297 1.6762706
过 -1.4757619 1.2989142 0.52287555 0.07343154 -1.3457257 0.14114214 -1.2265158 -0.4517752 -0.63279533 1.6920526
格 -1.0460405 1.4392905 0.7170427 3.1710868 -2.739215 -1.4694283 -0.23496753 -3.356734 -0.8480119 -2.97865
季 -3.8865466 3.1008759 -1.7054211 4.3987913 -0.3672975 -0.24075288 -4.190664 -3.790336 -1.8464862 3.839843
空 -0.37400073 -0.8859652 0.8718615 0.93498176 -0.596983 2.1621032 -2.142718 -2.3029618 -0.5501493 0.24306622
友 -2.00171 -2.2931392 2.1624575 -5.5965934 3.7074645 3.046929 2.300794 0.3129208 -0.45851025 1.6544173
性 -0.8335716 0.03954199 0.80821794 -1.8050321 -1.5790201 1.3022593 1.4865882 -1.0656337 -2.8008108 -0.16485411
意 -3.1451583 2.542715 2.787247 -1.5496285 0.046522155 0.88411987 1.585372 -1.5416838 -0.9413043 0.23221844
卡 3.0513587 -0.6607818 0.92634314 2.2084517 -0.3362277 -0.5758553 1.8764277 -1.6684971 1.3866719 -1.9692057
解 -0.0005156358 -0.05984137 -1.2244169 -3.1981883 -3.2933507 -1.7308125 2.4296699 -2.407348 -0.13557589 2.5978289
折 3.4387674 2.1555843 0.7800906 3.4958143 -5.4815536 1.6255453 -2.9189653 4.13749 0.99822235 2.5202725
因 0.023079973 -0.2723115 3.4333193 -2.0846908 -0.5393689 0.5968815 1.7499741 0.116599 0.05068164 -1.2350081
风 -0.47419912 -2.020963 0.8086006 0.6235799 0.75161433 1.3340294 0.9480173 -2.3188226 -1.58326 -3.9274263
克 1.8231109 1.631034 3.0086932 4.019577 2.7280736 -2.1276114 1.7642283 -2.7057495 -0.14986166 -0.4752194
同 -1.7295398 1.1018493 1.0903218 -1.3230302 -0.42716068 0.056322344 0.23050311 0.16285184 -0.30460218 1.3116708
红 -0.43614805 0.0806203 0.64260507 2.157022 1.4531705 2.0243158 -0.80668676 1.244086 -1.5480696 -1.3679947
化 -2.6921067 0.2840231 -1.2628824 -1.3297788 -0.8658197 1.2455671 1.3783517 0.2325706 -1.478998 -1.2087034
户 -0.69603574 -3.2839003 -1.3148941 -1.7591559 -4.457018 1.7707753 -1.158885 3.1573756 1.9037149 -3.7780893
广 -2.2657964 -2.3573318 -4.5773916 1.5120534 1.3003881 -1.2151628 -1.2685983 -0.36824924 2.873633 -1.0147902
录 -1.8317366 -0.45657015 -4.0461946 -3.3951676 -3.9012747 -3.9357324 1.1031607 1.6018336 -0.6752618 3.1078804
师 -1.3343207 -1.0335878 -0.22928436 -4.5196333 0.4740359 -1.5281526 2.213135 1.5661535 0.7562113 2.3049042
曝 1.3162142 -3.3354883 -0.9520151 -3.1103718 0.2678202 0.29850933 1.7512342 2.5748532 -0.95020896 0.29737836
单 0.3629445 0.024671499 -0.37973768 -0.4048887 -2.1509576 0.8537366 -0.39591855 -0.46054703 0.019485584 1.495395
区 -3.3454647 0.5248144 -1.1568551 1.2119932 0.89401925 1.8680443 -1.9888718 -0.113544725 1.9985183 0.10157514
和 -1.0574929 0.4464046 0.298059 0.27430224 0.005601737 -0.945989 0.7661223 -0.23407541 0.5936111 -0.8776019
走 -0.5450279 -1.8138525 0.79971725 -0.36917442 -2.0678911 1.1371062 -2.4699636 -1.140758 -1.7660235 -0.11972857
拉 1.7942998 -0.4906915 2.1642632 2.8805435 1.4910449 -3.138407 0.34891483 -4.328182 0.2813372 -0.28597707
乐 -3.3395143 0.80270153 -4.301046 0.38973168 1.1353964 1.9316982 0.36841732 2.6496232 -2.4671023 0.8089726
难 -1.8520765 1.3534988 3.0940027 -1.7186471 -1.9458039 2.3861957 0.10981325 -2.096384 -1.9024965 0.5429649
演 -0.31209347 -3.7868514 -2.0863218 -3.1890914 2.2226026 0.68132806 0.87542385 -2.2182693 -1.1555958 2.585598
击 3.778966 -1.3168664 2.1749988 1.67024 -0.31134662 2.0628016 -1.0726995 -4.07479 0.9643531 2.3323643
款 -0.79531735 2.0851421 0.57748646 0.90796053 -4.5424523 1.5008476 -3.0106525 -0.36369443 4.029475 2.5185926
题 -0.6415475 -2.2374403 -2.948291 -5.551769 -3.3700778 -1.260939 4.15476 -1.1031978 -1.5664555 0.99456066
未 -0.39318275 1.7001531 1.8713053 -0.7604518 -2.5971892 0.516205 0.2874258 -1.5267726 -2.0965059 1.6847233
院 -3.446253 1.8745561 0.64316875 -3.1301847 -0.7396245 0.051495235 -0.09160438 1.2014813 4.5986867 3.6809425
取 -1.0556175 3.4124987 0.068559006 -1.1224568 -4.8308473 -0.7574264 1.1052481 -0.6129744 0.6401884 2.7288508
告 0.37977228 0.6417547 -2.048792 0.6676576 -1.5969778 -0.038448315 0.589651 -2.637361 5.6232224 2.0415876
板 -2.2594802 -0.8798763 -0.30632892 0.30637994 -1.0359304 4.1834016 -2.728428 4.382742 0.8710887 -1.9265332
创 -3.1004965 0.324394 -1.8674477 0.042432137 -1.6922991 0.60802215 -1.6139177 -0.7499697 0.40287158 0.40183353
制 -1.0392834 1.0804667 -0.3930452 -0.8106575 -2.62302 2.2818885 1.4337589 -3.0249844 0.7791078 0.20325513
议 -3.810777 -0.30175844 -0.9799653 -3.3127236 0.9081153 1.5241694 1.7163634 -5.8820286 1.8817083 2.5327735
M 3.8813498 -0.8071134 -4.84033 4.386746 -3.2108839 -2.742989 0.7454942 -0.68263 0.85500205 0.19909422
型 -1.2004691 1.7024577 -0.7325542 1.8570392 -2.10314 3.7263882 0.67003113 -0.041746877 1.8156248 -2.4514174
代 -0.39883026 -0.8544535 -2.2627788 -1.321452 -0.91890484 0.9427701 0.95220476 -0.77344626 -1.7527671 1.4471277
神 2.720657 -0.43831405 -1.5499934 1.1504527 3.555794 1.9940761 3.1169322 1.0344106 -1.4069129 1.5077105
到 -0.35352987 -0.037275534 1.5530227 -0.653823 -1.8263252 0.411525 -1.8847872 -0.42386514 -0.34794793 1.7409369
伤 2.7664647 1.0555128 5.507293 -0.8118439 -2.2514803 2.488998 -0.91023976 1.4727273 0.27478012 2.7694514
应 -2.178625 -0.33265796 0.9519851 -2.8858156 -2.5072005 -1.0879056 1.5577767 -3.3412185 -2.1582198 -0.47012836
势 -2.5799685 -0.35005075 1.2433635 1.0665059 -4.2253556 1.5213794 -1.658492 -5.185286 -5.8737373 -2.624785
活 -2.9837973 -2.0381112 -3.1149976 -3.0761058 0.19249913 2.8754354 0.6488632 -0.84640306 -1.0503428 0.805364
已 -1.0694153 1.4235451 1.3144337 -0.81465024 -2.0683475 1.0677037 0.24737835 -1.3145893 -0.78059983 0.9502258
放 0.48921466 -1.4752166 -1.7694557 -1.3372831 -3.3114505 1.9786525 0.16678089 -0.49938276 0.460582 0.137204
费 -1.6195924 0.75571895 1.4098426 -3.03212 -4.966324 0.86393166 -0.37630296 -0.7617375 2.7442493 1.0336454
士 1.6445099 -0.12161359 0.12840557 -0.18131289 2.665384 -3.2053263 2.8509274 -0.12280125 2.0802069 2.0219984
杀 3.6740806 -1.4382472 2.62344 -1.764302 0.03676381 2.201198 0.20446898 -0.1925136 0.0471724 4.0265574
教 -2.0266004 -2.005729 -0.49102676 -6.143479 2.0935416 -1.3465127 2.1146657 0.4060808 1.6898146 4.407421
至 0.4804373 0.03674749 0.9976912 2.7804983 -3.893314 -1.3970441 -5.4853415 0.1241038 -0.5185964 2.2443388
看 -2.019772 0.17895868 1.0142827 -0.902573 -0.92215276 0.9773337 -1.1011268 -0.22603768 -2.3441937 0.58141667
结 0.62835556 0.76354396 -1.2935846 -2.627543 -5.184877 -1.2597134 2.798754 -0.44368947 -1.140563 1.6043755
我 -0.61567056 0.8973488 2.007222 -2.0269885 1.3635719 -0.582425 2.2733085 -1.4026144 -3.4923754 2.6682017
认 1.041965 2.2603896 3.082048 -1.1002399 -4.3598385 -2.7808623 2.2770858 -3.1210415 0.18097396 1.1643102
州 -2.794258 -0.71199465 -4.0206337 2.3967853 0.82994777 -2.3573313 -1.8329396 -0.34968463 3.0115209 0.04113616
界 -3.4246762 2.909664 -4.0510526 3.0525515 4.0725446 2.073311 0.697202 0.49417797 -1.9985281 2.919163
查 -1.3757864 3.3630433 -1.7308621 0.51395327 -4.4106092 -1.1154538 2.170545 -4.0146265 0.1581301 1.5198047
儿 0.6577544 -1.3295239 3.0305095 -3.4969704 3.393309 0.957148 1.527121 4.801609 0.07490115 2.2352517
达 -0.12545848 1.1276404 1.3233732 2.029278 -0.9518453 -2.571832 -1.0647515 -1.4024696 1.3668739 0.3911314
目 -3.1719575 4.643012 -1.0894666 1.5805581 -3.0996697 0.86794966 0.47826007 -0.98427546 -2.2470849 1.1878345
林 0.15285884 0.3157486 1.0163105 1.8685399 3.0500057 -2.8773339 1.8728514 1.1577274 -0.37776312 -1.4990739
向 -1.4623173 -0.41062373 0.7454477 -0.61507726 0.10205033 -0.021911027 -0.20166865 -2.7572808 0.56791204 0.37429577
别 -3.8024263 4.7994823 -0.28781828 2.9135673 0.6239678 0.90545547 0.6853037 1.9121485 -0.44820735 -0.4633781
案 1.0332729 0.637001 0.9837135 -1.9891056 -2.6636863 0.74725854 1.9162536 -2.180499 3.5391393 2.0087025
奥 -0.5444449 1.3287247 1.3763386 3.3044784 3.2570846 0.3871894 1.1937953 -3.6010027 0.5098266 -0.75777304
降 0.6608912 -1.2488214 0.06766669 2.5406454 -3.9419374 -0.93713486 -4.0928316 -0.9369317 -1.6524209 -0.37826455
里 2.4698267 -0.4391495 2.5361392 2.2645838 2.6408925 -1.6007367 0.77030045 -1.469394 2.0453553 0.13725694
领 -0.025208913 -3.472328 1.0957227 -0.65162086 -0.34676668 -0.9844833 -2.3755126 -1.8557895 0.10824687 -0.52364624
统 -1.2392325 4.580114 -1.7878729 1.0467619 -1.0233567 -0.34404942 4.3888645 -3.1318245 2.5134306 2.085648
正 -0.73237026 1.0109645 -2.4583313 0.5270281 -0.80012554 1.3276376 2.0963132 -2.473817 1.3460897 0.33195
婚 -0.22582838 3.1298723 1.4419049 -1.2201122 0.6775982 2.5511522 3.52647 0.4334769 -2.202986 2.5676649
当 -0.7500837 0.07078482 1.1283666 -1.0146687 0.96628207 1.1687336 0.80450267 -0.65425944 -0.9254883 0.7967564
销 0.6420543 -0.38047874 -3.160147 2.6177468 -4.975414 3.4356933 -2.1378367 -2.0512257 3.3199413 -0.4723037
岁 2.38848 -0.55915093 2.398294 0.7502736 1.5020665 -1.0454456 -3.8659456 6.59881 2.656146 5.369298
罗 2.8030918 -0.4841663 1.8123829 3.3255734 1.8410239 -3.7172503 1.9412516 -4.0887423 1.0216115 -0.9230652
双 1.2555506 -0.21124104 -0.37596104 2.0227287 0.20791987 0.72873735 -0.2814376 -0.79498094 -1.3301277 0.36184296
连 0.46029973 -1.283559 2.637241 1.0828886 0.08922499 -0.4031722 -3.843618 -1.2028311 -0.5416504 1.8100286
半 -2.4395192 -0.7640396 -0.60801446 0.17198674 -1.4366136 0.08152091 -5.4945393 1.0805408 -0.40280634 3.420297
警 0.2412235 -1.7252854 1.7874113 -2.6886919 -0.667199 0.16956776 -0.38312286 -3.269876 6.636352 2.7730365
展 -2.3227284 0.10133145 -3.9412868 0.75542396 -0.1879137 2.2792652 0.37903044 -2.9827018 0.9153491 0.64290833
测 -1.0783863 1.0293256 -5.811734 0.414261 -3.2721682 0.84501183 -0.29801524 -4.1567063 3.0483747 5.059507
影 0.025197553 -3.6071458 -3.716491 -2.1520066 -0.8376614 1.8064383 2.4081843 0.20777388 -1.7659295 -2.0467389
间 -1.7649099 -0.61889464 -1.8725317 -1.2260219 -3.33497 4.0660877 -2.3177311 0.56356186 -0.50235754 1.6106305
张 -0.45167968 -1.1053338 0.17905715 -0.0029935169 1.2157646 -3.5795143 0.80827034 1.2066689 -2.5262506 -0.9138332
式 -0.30086058 0.74696636 -3.4878025 -0.2622946 -1.6690633 2.1711 3.0444305 -3.8428338 2.693023 1.1998558
致 2.050471 -1.6381271 1.5936122 -0.6369095 -0.578637 0.97544616 -1.1006888 0.43115366 1.2887475 1.5007674
今 -2.3865554 2.085715 -2.5117855 2.1178722 -1.5732677 -0.59926224 -2.5989218 0.05399967 0.054516703 2.9194846
花 -1.3053029 -1.2567796 0.112948366 0.9536943 0.16283919 -0.2075171 -1.8379036 3.6255808 -0.1642093 -2.4136045
望 -1.8343246 -1.0737733 1.5284749 -1.3398898 -0.23421447 -2.627253 -2.0642586 -3.4067514 -3.7345793 2.8937805
B 2.9877448 -1.6603245 -5.6819515 4.455368 -3.4536943 -3.486315 -0.49696994 -1.3132175 0.7103691 0.049405664
亡 3.518626 0.9211276 5.2502327 -0.99234617 -3.1654866 5.6346464 -2.1734376 4.6120563 1.325426 4.5963635
位 -2.507815 0.7470705 0.7010332 -0.5067215 -2.3338623 0.044867843 -2.992288 -0.6080228 0.73744524 2.1145258
争 -0.25385416 1.1467135 0.7780925 1.004999 3.362675 3.3573916 1.2193785 -3.7750607 -0.45722166 2.658056
道 0.29246065 -2.3525681 -1.1550531 -1.5854588 -0.23140067 -0.38876694 0.45138165 -1.257649 0.74831355 0.61322325
客 1.2438096 0.19051988 0.94258016 0.7707018 1.519874 4.104962 1.1097338 -1.6103195 2.6879125 0.7762981
近 -1.7205598 1.2592958 0.11759938 1.0060265 -4.008018 0.41528013 -3.8558793 1.5127401 0.072523735 1.3590037
爱 0.6721867 -0.10496335 1.7009389 -1.18567 1.5509422 0.97888124 2.892733 0.27024108 -2.9880297 -0.16114943
失 -0.8257705 1.875913 4.447786 -0.76692784 -0.9863696 2.411644 -1.4264526 -1.3926743 -0.6323292 2.597442
量 -1.5206324 -0.29611355 -0.44618106 0.12881207 -5.2009196 2.1682365 -1.5985793 -2.646564 -0.53771746 -1.642288
F 3.6548903 -1.3425592 -3.3288646 4.3888 -2.2972038 -2.7222393 -0.89360964 -1.5758619 1.651386 0.5942535
局 -1.8978647 1.0111648 0.94392484 -0.732193 -1.2825553 0.19244313 1.1472632 -3.8257334 2.2180295 -0.23520419
任 -1.4776611 -2.1429226 1.3652238 -3.8208053 0.5028132 -2.1242657 1.1493076 -1.9181452 0.2779627 0.66160387
索 4.1259375 1.7678419 2.862657 3.0502975 -1.259915 -0.5874885 3.0992265 -2.5066652 0.5038109 -1.3000157
百 -1.464139 1.9451405 1.7194501 1.3415312 -2.1358912 -0.8461121 -2.3690176 1.8828306 0.3363882 0.34532607
求 -3.148156 1.2916471 3.8234925 -3.9772727 -1.287505 -0.15075946 1.3911593 -2.6246936 -0.9049307 1.2915162
富 -0.13306393 -2.3672872 0.78824973 -0.35005063 1.9895438 -3.1710227 1.2917118 -0.43886822 2.8141112 -2.2010517
版 0.5892394 -1.3490107 -3.1627924 0.82790345 -0.66762394 0.6733701 0.42052016 -0.51043314 1.0144179 -0.03462793
际 -3.4044676 0.7405329 -1.4533173 1.6797786 1.9432476 0.0041843858 -0.7927245 -1.097735 2.617936 -0.19476718
五 -2.6649196 1.2676089 -0.9381603 1.1055139 -0.26380637 0.10081225 -2.6699963 1.1485763 -0.87964666 2.162477
物 -1.9307353 0.13016237 0.5256191 -0.9701004 -0.21586238 2.0669448 1.4150947 -0.2523149 1.7189953 -2.1478922
破 1.8270153 0.82134324 2.4833362 2.1628468 -2.67286 1.5341086 -1.873389 -1.0023892 0.4018738 0.3169261
十 -2.1691315 0.8589519 -0.6083555 0.2359643 -0.85995597 0.16620815 -2.8610778 1.3800626 -1.0095003 2.841942
引 0.24452777 -0.8893731 0.2938408 0.26812676 -0.6034811 3.5536094 -0.14449297 -3.4789088 0.8117951 -0.026453845
或 -1.1768891 0.33611172 0.4587048 0.43020135 -3.1037762 1.0238787 -1.8407718 -2.7573013 -0.24004109 0.5040464
节 -1.4823664 -0.073546305 -2.5450587 -0.77884775 -1.4737324 1.9029926 -0.50374126 2.1108906 -4.2153864 1.6113987
欧 -2.3343647 2.5121305 1.4016367 3.4143133 0.8713407 -3.4553385 -2.1235583 -3.2010717 2.8135738 1.5160419
博 0.010456721 -4.2661138 -2.0756843 -2.2594082 1.1317797 -1.7652653 2.666928 -2.1379204 -1.1204644 -2.0116587
转 -0.9773503 -0.5401208 -0.2720906 0.35116068 -1.7949783 1.4742687 -0.13102052 -2.5383866 -1.167236 -1.5197146
集 -2.4043748 -0.032027327 -2.6076531 -1.4502325 -1.1097237 0.32259247 2.3325694 -0.81107724 2.0864847 -1.2835101
色 -0.4190001 -1.8924158 0.17748821 1.4013761 2.094758 2.2109945 0.5555069 -2.7761104 -1.3029662 -2.8032415
系 0.033164904 -0.8692291 -1.3156072 -1.4089704 -0.0005365276 -0.551343 0.71143675 -5.205249 2.2573395 3.9370687
造 -0.60935575 -1.1078993 -0.51462376 -1.358168 -1.1989367 2.7694552 0.38242224 -0.23877184 0.06366618 -0.62782353
江 -1.4593108 -3.0390825 -0.9928967 0.63361853 3.1611907 -3.3850431 -2.8310065 1.5648348 -0.75754035 0.9969228
所 -2.026982 -0.1889244 1.176669 -1.710965 -2.4476736 -0.015597106 -2.4806614 -0.66356766 2.683157 1.7591292
留 -3.6286151 0.86813045 2.6609943 -3.077716 -0.2255492 -1.2814579 -1.3843708 0.7665584 0.59726477 2.707288
香 -2.1473112 -1.2842401 -1.4667928 2.5576901 0.033509705 -2.7389703 -1.1994785 3.082567 2.9520526 -4.4441714
约 -0.1790326 -1.3992443 -0.99480236 -0.54883176 -1.5267845 -1.9643862 -0.26353657 -1.4536241 2.8260636 0.06679506
李 -0.99584794 -0.83743507 0.092408754 0.4872581 3.5190763 -3.1021025 2.343919 1.2367238 -3.0089748 -1.7879337
运 -1.3217033 -3.1970224 -0.7208202 -0.6145682 0.91559345 0.078324474 -0.75128007 -4.428835 1.8840235 -0.7961599
油 -1.8811636 -1.0918534 0.5604571 2.4034085 -2.7475436 1.677334 -1.5409434 -1.4488932 1.1671776 -5.976528
快 -2.6902332 0.8860835 -3.5905733 2.051849 -0.70668554 0.065325044 0.7230632 -4.473676 -3.0546381 -0.26364717
兰 1.6845351 0.65765256 2.0154197 4.7838697 2.7919905 -1.8166531 -0.07170227 -1.8038403 1.1699692 -0.87032443
独 -0.7234915 2.7171648 -1.6266958 2.7108696 -0.034332734 0.6499854 0.9184886 0.7279194 -0.027734851 0.50246054
以 -0.461492 0.42649966 1.8183372 0.4188883 -0.80700386 0.3861523 -0.8501178 -1.8730962 -0.30194363 0.44720715
韩 -1.6724982 0.36523592 -0.5701519 -0.00094799313 3.2387738 -0.5446501 0.8712358 -1.5876061 1.6083671 2.0786572
得 -0.12746853 1.401088 2.28638 -0.45892078 -1.7983258 -1.0109733 0.40140685 -0.41420004 -1.891226 0.87031955
园 -2.647138 2.2996612 -0.6310204 2.329381 2.6134171 1.7734375 -0.24542934 3.1498053 3.3668463 -0.20507737
阳 -4.1986136 -0.39097178 1.2253946 -0.1364913 3.5779476 0.7892143 -1.6663828 2.0388496 -1.334624 -0.56710035
冠 -0.1278231 0.09793213 2.4324446 1.8833466 4.1551175 -1.6522899 -1.4641573 -3.8689446 -0.5070938 3.8434594
易 -2.7679355 -2.1065307 -0.33586416 -2.2515273 -1.3930477 -0.1147809 -1.5674143 -4.033285 3.407956 0.6597923
爆 1.9576373 -0.50631833 0.40154544 2.4232628 -0.20850018 5.2084966 -0.42703483 -2.257408 0.19527747 -0.31352067
龙 0.5088744 -2.3382342 -0.08750862 1.7038212 3.4480531 -0.05974194 -0.68586576 0.6259045 -1.9120734 -0.72305036
少 -0.33557257 1.153543 4.181165 0.20482783 -0.09959737 -1.3296759 -3.310733 3.408476 -1.9960288 3.1496665
只 0.18510923 0.7280875 1.6986107 0.87709135 -2.1361184 -0.88941836 -1.9333307 -0.629408 -0.27656296 1.3555671
流 -0.24497032 -3.0988219 -0.96000516 -1.7439383 -1.4330245 1.4322149 0.17242709 -1.5388982 -0.20074487 -1.617169
l 7.3084116 -3.9968536 -3.116104 1.1037071 -2.251615 -5.0266867 0.10210053 0.80809814 -1.6401172 6.110534
职 -4.5200424 2.4235337 1.2073381 -3.220333 -0.15000778 0.9061876 0.36639476 -0.42198575 2.5300708 3.0476074
路 -0.68549246 -1.0315559 0.19617423 -0.15700062 0.9015268 1.1831447 -1.1320244 -0.44284904 -0.020180887 0.82039934
表 -1.1250073 1.3407235 -2.2018936 0.48028535 -0.49472103 2.3027892 2.5593586 -2.6659422 -1.251433 0.07394302
疑 1.4006375 -1.1731981 3.5788698 -4.1086054 -1.7238618 1.7430013 3.7908628 0.5925118 0.5296002 -1.5084114
送 -0.22699359 0.6148456 1.3185459 0.08340101 -0.6242348 1.3930151 -0.107321896 1.6745379 0.5450617 -0.42603776
财 -5.131448 -0.06047023 -1.381061 -2.628585 -1.8816746 -2.4781587 -0.1538088 -1.8007545 0.9734061 -0.079883754
于 -0.49195442 0.6750484 0.43534145 0.3437469 -2.6365607 -0.7281544 -1.593339 -1.3305926 -0.2797116 1.5681968
买 -0.96353436 0.17009844 2.1299796 -0.005257286 -2.4089806 1.0556594 -1.877543 -0.8936816 1.0675468 -0.45600754
宝 -1.0084661 -1.6630495 0.86316127 0.26908174 3.589698 -0.5186137 0.5679958 -1.240991 0.26560625 -1.2678334
号 0.71297777 0.35208037 -0.8947513 1.5626613 -0.8683072 2.0960476 -1.7619543 1.5858457 2.8164132 1.6132686
改 -3.5296714 1.4816804 -0.68775284 -3.0430398 -1.440795 3.5835 2.1086 -1.4764978 -0.7779957 0.9936734
就 -2.712238 1.5377928 1.6737322 -2.0431297 -0.40427646 0.91835535 0.26751775 -1.3651143 -0.62463474 2.0080745
问 -2.9122634 2.7922738 -0.45329392 -2.066175 1.1397996 2.044928 4.0633636 -2.0286357 -0.65684956 1.8572714
其 0.58531755 -0.74983644 3.8057687 -2.8248758 -0.18190661 0.91627717 1.3918368 -1.5101299 -0.09320283 0.8618963
团 0.2726034 -0.46464652 -0.9805485 -1.1375324 -0.21105306 0.735786 1.6698831 -0.64746433 3.494467 0.74830014
导 0.24065268 -2.9920967 0.56150085 -2.7580187 -1.032207 0.12525386 -0.32245454 -1.7525221 0.3451645 0.6248287
语 -2.6347136 1.1657754 -3.6813955 -1.0425664 1.9269664 -1.942638 1.7509207 0.5720338 -1.03278 4.173684
震 -5.5915785 -0.83390456 0.6200199 1.3353554 0.296366 3.2035596 -3.4801006 -4.1567626 -3.766201 -2.2449422
玩 -0.7603666 -0.5087075 -1.6018212 -2.1773481 0.9419787 1.7911777 1.6866906 0.2951404 -0.12767029 2.2537756
感 -0.59454954 -0.2783977 1.3162221 -2.5691698 0.94827235 3.0546181 4.2672944 -1.0787014 -4.2769837 -1.3265105
片 2.5854335 -1.213026 -1.7422868 0.876823 -0.9972896 1.7473676 2.91217 -0.7991445 0.3058969 -1.8260602
底 -1.0695746 0.9788646 -1.616313 1.2339061 -2.8724751 1.7927938 -3.4653838 -0.76692927 -0.013988329 3.6242948
他 0.6842078 0.7309491 3.727321 -1.8670379 -0.1295912 0.13677374 1.5244198 -1.4382222 -3.093461 2.2104688
拍 1.311436 -3.8904505 -1.3885704 -1.7803214 -0.32911274 1.1461227 0.2843572 1.4672455 -1.1737446 -0.82987916
r 5.773113 -2.2986772 -2.2987356 0.9152362 -3.8691149 -4.462508 0.2813882 -0.96288425 -0.87456715 5.1056323
夫 1.2038543 3.3745923 5.459403 0.6034244 3.1938996 0.4555835 2.3551211 1.5226258 -0.33634555 2.2581296
优 -1.5240557 1.969 -1.2142553 2.0251503 -3.8717997 -0.385907 0.21399598 0.4700365 -3.4583964 -2.0524883
标 -3.988887 2.843098 -2.1710687 0.83529204 -4.4196577 -1.5798832 -0.8159375 1.4554523 -2.6826108 -0.38455364
何 -2.1519518 2.450031 4.16054 -1.6066647 0.15260017 -0.16800922 1.4161197 -1.4914144 -4.118475 1.400125
亲 1.5114888 -2.4483511 2.9613156 -4.6759396 0.7085402 0.3384788 2.0586665 2.2790961 -1.5664344 1.5652356
想 1.2179492 0.16953588 -1.520261 -0.17956477 0.67054695 -0.7538201 1.3851326 -1.374051 -2.2245789 3.980702
奖 -2.72332 2.7913625 0.22750127 0.5908383 -0.75915015 -1.1307776 1.1614877 0.27502632 -1.2065775 -0.53266495
落 -1.5199616 -0.60260606 1.2896576 -0.2464434 0.2461737 2.9799235 -1.7518793 -0.61782783 -1.9330723 0.30557725
规 -1.0805999 1.0995698 -2.1714168 -2.1469297 -3.8514247 0.6882927 2.5367916 -4.1664433 3.2282505 1.9549767
决 -1.0372463 4.4648094 0.26706472 1.8050895 -1.2074951 -0.5029406 1.9795723 -5.312087 0.08098429 3.2461922
佳 1.4549441 1.3867284 -0.46735376 2.2349234 -2.293746 0.33493108 1.0041459 -1.2650986 -5.15321 0.42263195
划 -4.141053 5.965107 -3.9161413 0.92401963 -4.8700113 1.6946943 2.0940762 -1.1015028 2.039806 1.791999
沪 -2.134862 -4.656556 -2.3749027 0.5698169 -4.643973 -2.3327157 -5.168913 -2.624323 -0.3753518 -1.9934081
卖 0.5752636 -1.7448077 0.8136211 -1.1779253 -2.1047301 2.4404879 -1.2618092 1.7561098 0.40610877 -0.5147426
官 -1.0926869 -1.0538055 0.041048683 -2.7693126 0.3518717 0.12460359 1.0906975 -2.5937064 4.6058946 2.1272323
值 -1.708153 1.730403 0.78021324 2.1812494 -6.0105634 -0.8676264 -2.5596151 -1.1042701 -2.0808613 -1.669126
险 -1.5079631 -2.900613 3.0383668 -2.053772 -0.84542584 0.69508636 -0.0139055215 -3.4243543 0.03736834 -3.574275
及 -1.0020517 1.8152101 -0.32989207 0.118985906 -1.8376756 0.09996542 1.05292 -1.3630587 0.7331269 0.67377555
足 -1.9606192 1.846921 1.7641543 -0.5097429 1.5632293 0.49109924 0.14779174 -2.4335854 0.20419295 2.9378273
备 -2.5057378 3.8596494 -1.7001966 0.6948497 -2.1057923 1.9234805 1.3169703 -0.7853496 -0.25810066 1.4581469
环 -2.3909874 -0.541582 0.62524354 1.7481618 1.614981 -0.36044595 -3.6653116 -0.42841598 0.60751635 0.93849003
助 -1.4096965 0.34517926 2.1871016 -1.2701079 0.59277856 0.57046956 0.8926319 -2.8818784 0.3720127 0.32943058
口 -0.10916823 -0.71508944 0.18417427 -0.801063 0.03100471 1.9839203 -0.24088094 -0.3087986 -0.13235652 1.0945321
清 -1.865478 -2.4227746 -2.3525114 -1.1386797 -0.41607025 -1.5371252 -0.45780376 0.6216528 -1.9209478 -0.95856845
N 3.0882297 -1.5721613 -4.486298 3.7726648 -2.5602918 -2.8117335 -0.075003505 -0.92396253 0.915321 0.12518145
V 4.15991 -1.1335196 -4.5083275 4.8358164 -2.1485868 -2.176174 0.8003976 -0.50864786 1.1542953 -0.67546856
支 -2.0853798 0.5019674 4.7780323 -1.2006576 -1.3370453 -0.9306038 -2.5764291 -1.820607 2.59198 0.9544925
弹 2.406995 -3.7297049 0.8385943 -0.83816075 -4.050278 2.1332324 -1.301565 -4.9994335 -1.2674122 0.019729473
准 -2.8934784 4.1357574 -1.4258165 1.2876015 -3.4657032 0.02399261 0.4074386 -1.7475091 -0.18355075 1.4604986
千 -0.22178465 1.0279896 2.9447455 1.3786381 -2.0524874 -2.1288972 -2.9144979 3.2956884 0.9500162 0.058983687
排 -1.7699312 1.5608084 -0.14074868 -0.4310812 0.6038446 1.1096196 -0.17019759 -0.52891386 2.5105531 2.798616
权 -1.8714261 -0.90477717 0.6833561 -2.1127641 -3.0839825 -0.8987278 0.83972335 -3.0127826 1.0119649 -1.8738984
记 1.1604589 1.0720836 -1.8827838 -0.9577569 -0.91084737 0.38490304 2.5773318 -0.18261592 -0.2574972 3.279794
套 1.9220037 1.494825 -0.17198926 4.182047 -3.0181055 2.4703186 -1.3949064 0.03327416 2.6022027 -0.81421536
件 1.2298299 3.4631484 0.23454484 -0.34919846 -3.1052175 2.9895883 2.9352787 -2.2633817 2.5446305 3.0966976
言 0.9673464 1.8962499 -0.20335883 0.2803707 0.8489736 1.0001812 4.104844 -2.4740567 -1.1066097 1.250323
真 -0.84933454 0.10217998 -1.7135854 -1.9643751 -0.28822905 1.5830774 3.370689 -0.86567354 -3.1092813 0.56964374
管 -3.3797936 -1.0534298 -0.010710382 -3.1381652 -1.601708 -0.77429307 0.6115027 -3.2849686 2.0800135 -0.4614332
服 -0.86974335 -1.0512195 -1.8009074 -1.7576191 -0.5906772 1.4726658 1.5977075 0.12567103 2.8939135 -0.46479088
志 -2.7578123 1.2378747 0.6530452 -2.3244977 0.7479674 -5.267607 3.0817304 -0.3009712 -1.9858943 1.113204
做 -0.4954912 -1.157359 1.2198203 -2.1207454 0.0049402392 0.69323856 0.6566584 -0.42822447 -1.6686774 0.35289153
待 -2.2819018 2.6858184 -0.90493304 1.6772058 -3.2370996 2.124013 -0.90005314 -1.0532626 -0.36049736 -0.041916534
河 -2.9623733 -0.53492796 -1.2575437 3.074845 3.2507246 0.5060934 -2.7418814 1.9495 2.3261182 -1.0100656
享 0.15148877 4.044902 0.9355329 2.3099463 -4.2003965 0.33746117 -0.807978 2.240777 0.46360162 1.6753842
术 -1.4289156 -2.7332683 -3.7019389 -3.7376645 -0.19125903 -1.7363778 1.709106 0.3198061 -2.9184217 1.8190267
原 -1.1251467 -0.7202121 0.6853476 -0.51268405 -1.1528664 0.34016994 0.40273184 -0.18426554 0.4275585 -2.46797
黄 -1.7795473 -0.30500498 -0.12121144 1.6720768 0.17273925 -0.9701968 0.46120408 -0.055505227 -1.0591253 -3.9017456
陈 -1.6551163 -0.43466312 1.3790537 0.081763536 3.0555108 -2.6139767 2.0789716 1.3026417 -4.278162 -2.2674546
朝 -1.0308713 -6.287079 -0.4291088 -4.247556 2.855808 -4.0736737 -0.12340411 -3.4070084 -1.8816729 1.7943132
站 -0.91711587 -2.8393118 -1.5992662 -0.9270726 0.27786586 1.1948498 -0.9827274 -1.9488299 2.3676195 0.058941916
谈 -0.06642102 0.08273422 -0.13340855 -2.2075207 -0.06906621 -0.63379866 2.8838155 -1.3327831 0.3553011 1.4307861
接 0.23064272 0.01911308 2.246316 -0.4130706 -1.9251753 0.5510062 -1.0735874 -1.8481286 -0.41648293 0.9524768
整 -4.97942 2.0158079 -1.9109292 -0.94563454 -3.604891 0.6637817 1.032745 -4.6152043 -2.2731843 -0.44506586
仅 2.236843 1.4498214 -0.49664313 3.6685066 -4.00231 0.40009236 -2.374595 0.4707064 2.0403483 1.5745964
湖 -1.9120078 -0.2855751 -0.46284962 1.6256577 3.8560293 -0.99682057 -2.275707 3.0632505 0.19118765 1.6607026
都 -1.699687 0.7410131 0.48851436 0.69146657 0.81772196 -0.13797353 -0.921638 -1.2204987 -0.68916786 1.216736
抢 1.818251 -3.2568185 1.6732358 -1.0220873 -0.60141677 1.2958896 -1.6519883 0.40016127 0.33396292 -0.015961071
奇 2.9950004 -0.27585658 -0.6119767 1.7793247 3.9590087 0.6991295 3.3029122 -0.47071734 -2.350658 1.5546848
福 -2.9139662 1.5254035 -0.5697416 0.71153283 1.9350141 -2.8996956 2.5417678 0.7713112 0.7269438 -1.9129908
胜 -0.05440032 0.90287817 2.3497975 1.581913 0.14305454 -1.3523024 -1.4607037 -1.9448146 -0.86674154 1.465132
离 0.01016512 0.44323176 1.2512641 -1.8910508 0.0035423187 1.3013059 0.97377896 0.22264269 -1.1127661 2.2684355
办 -2.8883111 2.4239469 0.079750605 -1.372874 -0.059009023 0.94513804 0.9499405 -0.8530436 3.50212 2.4242122
示 -1.0976958 1.7912091 -2.6369324 0.7302077 -0.30548495 0.72774386 3.2902904 -3.9708939 -1.0211185 0.5451143
武 1.2779706 0.41572 -1.0677854 2.0188081 4.556976 2.0253398 3.549937 0.78788364 1.2811466 -0.3989889
等 -1.4042692 0.9733934 0.48909834 0.050414596 -0.6044616 -0.11715011 -0.69666606 -0.081255846 -0.22448981 1.0524929
气 -0.08483919 -0.8310044 1.6071012 -0.13659212 0.34658027 2.8213594 0.4599269 -0.34755594 -2.4211855 -1.6260226
立 -2.435235 1.8270295 -0.8748342 0.4236407 0.3533606 -0.40657842 1.3759605 -1.2732806 1.1503801 0.12035553
显 -0.7170562 0.27667603 -4.2690344 1.4793444 -1.291649 -0.94789505 2.6266093 -3.1359181 -1.9501653 -0.92309797
批 -1.4163623 3.1098084 -0.47705692 0.32556143 -2.666806 -1.0213685 -0.68169844 -2.100859 1.8154963 4.3699217
太 -0.846757 -2.1690762 2.2131026 -1.0600575 1.1133667 -0.75321263 -1.5476854 0.8634009 -1.6303939 -0.5210606
牌 -1.6209642 -1.1015307 -0.3958372 -0.7490572 -0.8203456 2.2525666 -0.06366689 0.26775095 0.22341506 -2.0106647
注 -0.9866639 -0.46132654 0.652735 -2.511732 -3.1069083 -0.61102647 -2.274265 -3.6854813 2.0012426 4.92361
举 -2.9244177 -0.3631208 -2.422529 -1.9504871 -1.1628244 0.29034206 -0.67892134 -1.9858848 3.3807082 2.4914725
讯 -2.684981 -1.0346638 -4.3801975 0.6357961 -1.5985322 -3.5653746 0.29967675 -2.7414756 -0.46779388 -0.7068878
启 -2.8790302 -2.2955441 -5.6392574 -0.81645334 -0.4751462 1.8488818 -0.31150603 -2.7067313 0.54354614 0.76893777
d 4.970477 -1.7220436 -1.4108285 1.6573892 -3.82117 -3.4732893 -0.41138992 -0.52240473 -0.5687389 2.9168525
技 -0.936635 4.173352 -0.62549555 0.27577236 1.1917413 -0.76769 3.0029979 -0.51877314 0.5114608 4.298779
秘 -0.7080925 -1.8953893 -3.1786413 -1.9646391 3.1107965 -0.38287672 4.7041388 -1.040537 -2.0251904 -0.1417524
媒 -3.17824 -0.74704653 -2.8393009 -2.7680383 2.3795 -0.86554223 4.9227037 -3.4027421 0.9125783 -0.18261732
如 -2.0888412 0.87435156 2.660409 -2.1027243 0.18128113 -0.8191162 0.9707186 -0.8606339 -4.2194777 1.0367427
微 2.0218973 0.8640808 -2.6104405 1.4512917 -0.17515545 1.3467002 3.7667644 -4.2528763 -0.05186506 1.441106
黑 2.4517753 -3.0970547 0.6444102 0.97674245 2.418287 1.4345063 0.523335 -0.61569065 0.06511686 -1.3902059
墅 -3.1712625 7.104954 -0.059449885 7.295868 -0.5013885 3.6942122 -2.0769866 2.301701 2.2123604 0.5105652
府 -3.7008607 -2.0376556 -1.7214346 -2.1115634 0.7326964 -1.9631615 -0.32932356 -5.4641676 2.8921525 1.3307114
更 -1.1124517 0.34940565 0.46302286 -0.6142431 -1.3041339 0.827316 0.6000904 -1.6871917 -2.0444915 -0.02445933
观 -3.7564454 0.04389853 -0.6826411 -0.7897524 1.7721958 2.195258 0.6846809 -1.1497421 -1.5523664 -0.8724546
青 -2.5294058 0.77696663 1.0758125 0.41273713 3.4870105 0.09732441 -2.0048068 3.1701689 -1.1619362 2.4183874
质 -1.1845278 -0.70472383 1.101783 -2.7668443 -2.7808895 2.669873 2.2247527 0.56174374 -0.6734939 -3.1712594
仍 -1.4474281 0.74194217 2.520232 -0.8257097 -2.7427297 1.1882269 -0.73668504 -2.7137268 -2.1113331 0.23350884
宣 1.9638741 -1.9704143 -3.0236938 -0.6492677 1.2924562 -1.5605819 4.07253 -3.1800053 4.920955 1.1662858
停 -1.1760744 0.13217454 2.314262 -0.12919004 -3.182993 3.2639515 -2.91461 -1.2938516 0.8823336 0.10359478
防 -1.5157601 -0.0015140738 2.608754 -1.4401773 -0.45932218 1.0418581 -0.6014377 -2.0284622 1.0683572 0.4658909
债 -2.4413993 -0.7307203 1.25271 -0.88232064 -4.4764724 -2.3085725 -1.4842726 -3.3870778 3.2497385 -1.9853716
模 -1.4381943 1.5847056 -1.80927 -0.3450265 -1.1368451 2.3263893 3.0601425 -2.2513602 1.0857116 -0.37983832
需 -3.4637537 1.5020878 3.1024125 -2.4833965 -2.7880337 0.60802543 -0.057844575 -3.0308125 -1.1221128 0.37495893
住 -2.5310564 2.02095 2.7250345 -0.29357886 -0.73421985 2.745106 -1.2496748 2.3331668 2.4417489 -0.3131433
伊 2.5590093 2.649031 1.6235807 3.0456324 1.1720159 -2.6074462 4.9402475 -3.8806317 0.5379624 -0.2049788
幅 -2.3009417 -2.423802 -1.1958734 2.0572975 -4.6276817 -0.28828248 -5.5980515 -1.0375061 -2.7051966 -1.7643639
减 -1.5586184 0.3705651 3.3301618 -0.45142516 -4.0848155 -1.1311189 -3.4031744 -0.99690187 -0.20295745 0.38681382
Q 3.1347504 -3.5393765 -4.2053046 4.298823 0.5358916 -0.033432033 -1.3303387 -0.14977582 0.73831666 -0.7950641
非 -1.9022849 0.99232167 1.3343241 -1.1378616 1.761414 0.11272778 1.3144964 -1.9911126 1.1584364 1.3899324
先 -0.25612107 -0.6320103 1.3079925 -0.52479875 -1.4057636 0.20007083 -0.8727349 -0.571279 -1.5330251 -0.009243312
还 -0.5808525 0.7869556 3.225294 -1.4791868 -1.9269975 0.36572632 -0.05665445 -1.2973727 -2.480407 1.0153185
X 4.934211 -1.6069988 -2.9787948 4.6687894 -3.7205403 -2.2121646 -1.0789809 1.2750794 1.6359546 -0.4565063
庆 -3.0344827 0.50368166 -0.7860584 -0.79580295 0.92677546 -0.73618 -0.1676703 1.2078449 -1.2301888 0.8379422
券 -5.4083667 1.1737956 -1.6336002 -0.15097512 -5.485155 -2.355007 -0.535384 -3.3036764 4.367048 -2.822115
普 -1.8540256 1.2104709 -2.259954 3.7122552 -2.0291755 -3.4786544 -1.6149867 -1.1886879 0.43512228 -1.0374299
钱 -0.7694515 0.3048496 4.482934 -1.8084387 -2.0813427 0.5335054 -0.87824667 1.9286246 -1.0798419 -0.6929977
融 -3.4289694 -0.1346576 -1.3321873 1.2922113 -2.9825282 -0.926699 -0.030316643 -3.0275595 2.8479214 -4.4396043
了 0.35631642 0.9904778 2.7037544 -0.92199534 -1.1109042 0.90630937 0.03566066 0.14651386 -2.419092 1.9011445
绩 -6.935447 4.9355607 -0.43220064 0.04302619 -3.2977488 1.1083901 -1.6316406 -3.2888374 0.3922768 2.4765952
维 -0.9732711 0.062150273 3.9761446 1.0468247 0.014904163 -2.5835361 -0.19405682 -3.4314141 0.6347863 -2.2126548
冲 0.794679 -0.27270997 1.5135264 1.7983638 -0.8975758 1.9638007 -2.2646112 -3.976132 -0.64893615 1.5645527
企 -5.731007 1.8610744 0.96600246 -0.21628518 -0.67918074 2.677209 -1.2846742 -1.854878 2.7918355 -1.3317518
率 -1.8820939 0.8824695 1.402938 0.1938575 -3.9516246 -2.0496173 -1.7489892 -1.7422788 -0.80145985 -0.32759115
惠 -1.1395339 1.9135071 -0.9162244 2.954598 -4.239629 -2.8728957 0.116878316 2.2746093 -3.5722296 -3.3310952
秀 -0.65994126 0.21411821 -1.1947678 1.3106709 1.1167111 0.34863254 0.9327464 1.492497 -3.1581807 -0.87939787
否 0.0047211177 0.1529874 2.688728 -2.8133385 -3.0590005 -2.912688 3.3416426 -3.644485 -2.846993 -0.487576
密 0.45062664 0.14869279 -0.86916006 -0.6812699 0.7305133 0.124521516 4.5027924 -1.5536481 0.5561674 -1.1988776
遇 0.9687324 -1.4015201 3.8222175 -0.8009683 -0.37653035 2.6706128 -0.75612193 -1.9241887 0.4435925 -0.32242057
救 -0.76192033 -0.6038531 3.8347566 -2.2247074 -0.28887957 1.1383764 -0.526126 -1.4791837 0.9432769 0.6844323
六 -3.3691657 1.8047155 -1.4351951 0.8085041 -0.77614695 0.10598076 -2.8018444 1.0231465 -1.3799683 3.0248678
育 -6.421098 1.0183995 -1.8422091 -5.6410227 2.6609442 1.4958637 3.8617795 -0.9061969 0.6192064 2.9271538
铁 -2.2175126 -0.9276848 1.2203685 1.0132005 1.975309 1.947313 -1.4423728 -0.6026389 1.3805386 -1.8947078
礼 -0.59647393 -0.60861063 0.48621124 -1.775197 -0.37017626 0.6623616 2.1664188 2.491697 -2.526368 -1.8393592
洲 -2.240596 -0.96173495 0.23304208 1.7820816 2.8024285 -2.8868718 -2.372938 -3.733266 3.2179341 1.4691107
申 -1.7033412 1.902799 3.002801 -0.8600331 -2.4807682 -2.7313774 -0.59270537 -1.857487 3.0468447 1.2730942
直 1.9067518 -0.68918484 -0.3061944 1.9722553 -1.0710162 1.7685497 -1.0747875 -3.2448492 -0.19965833 1.2119693
策 -3.8977704 -2.333401 -1.9360263 -3.8780313 -2.163233 -1.285547 0.2629009 -8.742616 0.11294179 2.2951093
参 -2.6045897 0.8550352 -0.560881 -1.1963559 0.23117344 -1.8401407 0.31052035 -3.324307 0.60409313 2.97423
深 -4.262538 -0.48126274 0.3792216 0.029292034 -0.8703818 1.1971989 -3.961421 -0.0960937 -0.25699127 -0.45682907
s 4.387705 -1.5594081 -0.8102417 1.3998698 -0.62773156 -3.4293213 -0.6651881 -0.6859625 -0.38908276 4.816009
春 -2.0922155 -1.2104188 -2.2512898 0.13779108 2.0486357 0.20246504 -1.4557357 1.7789586 -3.410739 1.5889496
果 1.8097497 3.8129086 -0.16062555 2.3597717 -3.1843548 0.97646224 3.014612 -2.2231708 -1.9769379 1.1954648
票 -1.5835578 0.19193874 -0.34948495 1.2470825 -4.0431976 1.9051818 -1.5795262 -1.287755 2.230103 -2.5385869
波 -0.22607861 -0.051248413 0.17382596 2.8699315 1.608105 -0.7942662 0.620132 -3.0674555 -2.4076192 -1.7522115
完 -2.1556926 1.5127809 -0.25560567 -0.5146842 -1.0406473 -0.28234583 -0.34896868 -0.88472396 -0.07236343 2.0285676
源 -2.0749857 1.69446 -0.39385566 1.8715907 -2.9676292 1.066977 -0.060883418 -1.7288808 0.48942536 -2.5134141
见 -0.78377384 -0.5207489 0.70207316 -1.8247102 0.015388131 -0.13975926 1.1590303 -3.158951 -1.5309695 1.3500429
盛 -3.242854 -0.7122783 -3.122693 0.013040514 1.0272418 -1.1228737 0.23958825 -0.6493235 -1.3068941 -0.36980802
暴 1.0409691 -2.8369985 1.7256173 1.6521829 -0.37421662 1.4769251 -1.4736185 -2.3270452 -2.1576173 -3.0764792
消 -0.8768245 -1.8825994 0.6971859 -4.1892686 -5.0682006 -1.924395 -0.07568014 -0.56971735 1.3770483 0.12119944
假 -1.5301967 0.6105859 0.60715157 -1.2007942 -1.4219607 2.6888187 0.07365246 -0.6483068 0.9689127 0.2755105
突 2.442126 -0.83486503 2.2699587 1.5918634 -2.4096122 2.4554095 -1.9862071 -3.696543 -0.4190231 0.9634665
判 2.1696146 2.5436523 3.0833166 -2.2385392 -3.1501465 0.16685076 2.3554926 -2.2636774 2.6794965 5.079278
息 -0.6257964 -0.015442603 1.2115259 -1.57574 -4.1953917 -1.1501608 0.25075114 -3.0943933 2.2931066 -0.15681645
景 -2.950623 -0.5497888 -1.2118655 0.4444339 1.4587648 0.88234097 -0.8095839 0.78836113 -1.3801359 -0.98539233
飞 1.7773987 -1.8055326 0.83048356 1.575511 0.64601046 2.6050649 -0.9667369 -1.2076755 1.288982 -0.7695122
你 -0.24950136 -0.12978649 1.1692511 -2.8230338 0.43087518 0.35891235 2.124887 -0.73838454 -3.396205 2.3158627
程 -3.0737174 0.46259907 -1.1433822 -2.5202484 0.53857094 1.6884134 0.60206777 -0.13540703 0.5856704 2.3435776
歌 0.68101245 -1.701182 -3.139233 0.30080554 1.5605719 1.7074796 1.5727726 -0.052702416 -2.6502664 0.5049083
核 -0.6855765 0.84641284 -1.3689963 0.26056 -0.021007176 1.0978816 2.1135175 -1.5604497 0.23686849 -0.012805835
卫 -1.4743526 -1.5280738 -0.68398315 -0.97529685 2.6870112 0.60783917 -0.17723295 0.031157063 -0.20432195 1.0885476
帅 1.4051907 -2.8985322 2.0379438 -2.0987952 1.7961924 -2.1268861 1.911518 -2.959057 -0.66281295 0.3785419
俄 0.62761813 -0.11510396 1.9004118 0.78403264 1.6177517 -2.3496814 1.3323668 -3.917811 2.8896537 0.78704005
H 3.2898953 -2.3313034 -3.54369 3.8073344 -4.398469 -2.9230516 -1.4801838 -0.6370373 1.9667976 -1.377169
尚 -0.82856804 -0.8191209 -2.5240538 -0.5098345 -1.684233 0.43479744 0.71646804 0.8113426 -3.250585 -0.43034834
短 -3.2804365 0.49339506 -2.4382863 1.1928419 -3.9323785 1.5250139 -0.9420872 -2.2580822 -1.0028535 -2.39051
省 -3.1464741 1.1665121 0.06426205 0.070344724 -0.6324492 -1.9585485 -2.692421 1.5438334 1.9189004 2.2644691
设 -3.8598304 2.9776895 -3.4202623 -0.116505496 -2.3809388 1.1767067 1.8580847 -0.5251527 2.2626183 0.002327304
t 5.51048 -2.6760428 -2.3327508 0.2502412 -3.7220614 -4.594612 0.69620365 -0.7072168 -0.6183486 4.648387
登 0.55264634 -1.6038743 -1.7695842 1.2472051 1.4170825 0.48195726 -0.98522395 -2.7302206 -0.058247987 2.0254166
功 -1.3982035 2.9375143 1.0989667 0.3370093 -0.61691195 0.46484947 0.9683777 -1.5918659 -2.0234828 1.952646
访 -0.840326 -2.2116473 -1.5433248 -3.0783536 -0.5816166 -2.9410777 2.2116416 -0.798905 0.6102491 -0.08441856
班 0.191442 -2.274327 2.7950654 -0.26210448 1.5932062 -1.3605571 -3.2220268 -1.9251962 1.4116615 2.6097856
白 0.022644194 -1.5095263 0.98502856 1.4267497 1.7460557 1.908369 0.13511084 0.2905319 -1.3750838 -3.1050384
话 0.20508735 -1.2269732 -1.5055549 -1.9983305 1.0807261 1.3205906 3.5200462 -1.2197747 -0.7039704 0.1992849
即 -0.5596893 0.7283785 -2.016202 1.4542112 -1.386757 2.189953 -1.1260026 -2.1821961 1.4509671 2.1283464
攻 0.29661745 -2.2565184 -0.21473233 -0.55019695 0.050857414 0.2844888 -0.66869783 -5.2920055 -0.69564867 1.8859177
湾 -1.2383015 -0.306951 -1.4453864 2.583934 2.7689776 1.2594904 -1.2558432 2.2322223 3.2699456 -0.42054373
云 -1.358105 -1.394038 -0.7560025 0.35987598 2.314794 -0.95864236 1.1145571 0.19513424 -0.98259234 -2.090783
石 -1.4972707 -1.3826778 0.6237305 2.4001439 1.2855012 1.7150819 -0.27614003 -0.91757756 0.6139498 -5.110801
没 -0.53885424 0.38107407 2.4596438 -1.915991 -0.8198017 0.22244954 0.9263261 -1.682181 -2.7179987 1.3619348
轮 0.27002567 -0.2842433 -0.40245473 2.5806181 0.50138617 0.7583491 -2.6553235 -2.1012106 -0.0618948 2.1205406
余 -0.7273442 2.0410144 2.5773907 1.3057489 -1.6183892 -0.41300502 -3.0396636 3.580693 2.642935 1.4855108
豪 -1.1327592 -0.4780685 2.3478813 0.66572595 3.0266206 0.25438967 0.08451206 3.1373916 -0.03725107 -2.4319475
频 0.23299627 -3.2935815 -4.8084245 -1.70777 -1.7601358 3.1498506 2.2664685 0.43746144 0.5884852 -1.6740216
孩 -0.24147186 -1.4869851 4.394271 -4.76701 2.697991 2.2630672 0.63448876 4.435342 -0.6864001 2.8394933
济 -8.251227 4.3260503 0.19982171 -2.1350245 -1.6907711 0.73489684 1.730547 -0.31913683 -2.198486 -1.2190722
去 -1.7495322 1.6052638 1.4300262 0.0019092932 0.26009896 -0.6815071 -1.0448328 0.42321604 -1.8179594 2.2050061
让 -0.11454606 0.5738948 1.6739944 -0.9317252 0.77280635 0.42735243 1.1657879 -1.0177716 -1.5714756 1.5634897
控 -0.4825507 -1.5583199 -0.3706744 -1.4031861 -3.0216565 -0.2351466 0.09438119 -3.1379352 0.34432605 -0.6381893
究 -2.0454302 -0.8839589 -2.3683267 -5.439182 -2.8445852 -1.437269 -0.923231 -1.2060142 2.9612548 8.421209
亮 1.3107789 -3.090453 -2.7207735 -0.056531586 -0.3501102 1.627128 0.23020165 1.2602947 -3.0711992 -0.67397296
绝 1.0858141 -0.48803103 2.953928 -2.388775 0.8933814 0.7933323 2.4074543 -1.5991201 -1.154465 1.249176
母 1.5581067 -1.9035015 4.6928043 -4.606949 1.3763863 0.54700416 2.2522302 2.9870744 -1.4966304 1.1986369
带 0.96583605 -1.2942975 1.0368265 -0.36799237 -0.32807395 1.7329373 -0.40108016 -0.4043265 -1.2158828 0.28974426
签 -0.79046535 0.66943383 -0.36055952 0.07968701 -1.7221235 -1.1823664 -0.48651114 -2.2800114 2.6642296 1.6564023
份 -1.3019001 -0.4447302 -0.11225251 0.36955172 -4.868377 0.053223297 -3.9444542 -0.06319844 2.288965 0.25401863
欲 0.17638758 -0.7883148 1.6033392 -1.0536704 -0.23587915 1.2668996 0.014593092 -0.44510746 0.39655483 0.19895233
纪 -2.922195 4.739199 -1.979981 1.0636461 -0.99399203 -0.51292044 3.1111515 1.5517533 -1.4802698 0.42621115
？ 0.5002803 0.48473102 0.9566264 -0.13804638 0.5504587 0.6717403 0.9903691 0.19320627 -1.1823431 1.0523822
纳 2.0003815 0.22925961 3.1198742 2.4461274 0.63792646 -1.906227 0.12574601 -2.1669974 0.93755597 -0.40190884
压 -0.7066177 -0.6846457 1.9140269 -0.45112613 -1.9981322 1.2701062 0.26273403 -4.248297 -1.5333444 -1.5657818
初 -1.9230723 0.76901937 -2.9795463 0.028965648 -1.4054942 0.8579898 -1.7129594 0.12836935 -0.849619 3.724967
论 -2.009506 0.4839361 -3.636729 -1.5597523 -1.3802375 -1.5608745 2.2864168 -3.2462022 -0.55718595 2.2998135
泰 -1.004658 0.38261598 1.5315369 1.3937284 2.4349997 -3.3702073 0.9360601 -1.951467 2.232365 -0.6094182
限 -0.90326446 -0.25097105 -0.4137566 -0.53079814 -4.157036 1.4201828 -1.104958 -1.8776801 -0.04315699 -0.07990098
速 -1.845127 -0.63361305 -1.7040057 1.1265454 -1.8655677 -1.0760521 -2.5075746 -4.0763855 -1.6900961 1.384166
照 1.672411 -2.1873186 -0.6640991 -2.2474942 0.36985874 2.9864833 3.503059 0.9089944 -1.163243 -0.9009562
幕 -0.98194456 -1.346834 -3.745295 0.5842998 0.79631066 3.1791272 0.024232736 -1.6435461 -0.5062749 0.6154833
农 -5.0568104 0.21126303 1.4726337 -2.3991346 0.43536478 2.5152493 -1.1745228 0.7885796 2.897477 -0.40837878
析 -1.972376 5.085843 -0.22187458 -0.9156189 -2.3830128 -3.248702 4.3665924 1.2406167 -0.113908194 2.1429749
巨 1.0065284 -1.1537758 1.0876489 1.6720026 -0.796674 0.89397883 -1.2387564 -0.14006644 -1.2285967 -1.690357
监 -3.4384305 1.4766352 0.18659538 -2.6127048 -2.4169843 0.6265391 2.5627031 -4.1088986 3.8064575 -0.13219556
兴 -5.3554053 -0.19267793 -1.6881449 -0.29095945 0.8807612 0.0008020622 -0.3308036 -2.0475864 -1.0189492 -1.4851707
剧 -0.8722397 -1.4809377 -1.8435127 -1.2829577 0.82852614 1.4578699 1.4540333 -0.21106029 -2.1875958 -0.069996856
愿 -2.3044877 1.2126228 2.2255852 -3.7467518 -1.3729947 -4.8572826 1.9664727 -0.45770773 -2.182483 2.4611928
读 -1.8114039 3.7049832 -1.468184 -1.2064892 -1.0139225 -1.7892134 2.7947676 -0.39321652 -0.0026864468 4.3685074
梦 0.7042096 -0.9431728 -2.0703049 0.21571323 3.1829982 1.5895422 0.64805865 0.8756482 -3.2949386 3.4598792
知 -2.914655 2.3679261 -0.6251165 -2.1999452 -1.3261117 -0.38154432 3.1133397 -1.1246434 -0.4476378 0.91512406
处 -0.5156566 0.28092384 1.2074761 -2.1752434 -2.666008 -0.39652222 0.23057093 -1.0952191 0.88301086 1.4122932
书 -0.8317629 -0.71229213 -1.4201254 -3.0402675 0.24567397 -0.1384324 2.997073 0.3928811 1.1159974 0.82552814
揭 -0.2731297 -0.30032223 -4.494182 -0.6463024 1.9423051 0.3048399 4.717759 -0.9178827 -0.17246273 0.7235377
苏 -1.9318036 0.43185127 -0.65886694 0.9969461 2.488055 -3.3209038 -0.64214396 0.43663573 -1.6663014 2.004325
刘 -1.2821531 -1.5832692 0.15594259 -0.71830547 4.0474167 -3.877113 3.433601 0.15015776 -3.688263 -1.7648687
病 1.1905423 0.72621447 3.981604 -1.9798 0.743523 3.2793403 3.0897055 1.3668634 -0.8383201 -0.07254752
存 -0.8499542 1.1599362 1.6740855 0.28343216 -2.944337 1.3816364 -0.048680756 -1.088747 0.30627733 -1.506136
拟 -1.4137648 0.6645836 -1.4055802 -0.31336293 -2.016527 -0.017122464 0.0899101 -2.1046772 3.2845662 1.1567979
席 -0.49605575 -3.3458128 -0.9502628 -2.4503691 0.48542988 -0.1397149 0.048825864 -3.1811135 0.14573292 1.2503257
协 -3.5374134 1.5474539 0.57606834 -2.1941478 0.33996448 1.0771794 1.6463639 -4.9746933 2.185578 2.3285077
R 3.698698 -1.4275024 -4.6822248 4.411487 -2.9261668 -2.8921182 -0.35673624 0.06961886 1.2676744 0.3865583
继 -0.45496866 -2.5305026 3.401013 -1.8003181 -2.0814643 -1.7099831 -3.3018713 -2.917593 -0.8189011 1.5050138
希 -3.574533 4.4522314 5.542036 1.6410476 3.3167708 -1.1003183 0.17841652 -2.3390915 -2.1325486 1.5213659
略 -2.8019013 3.316144 -1.2925093 2.605342 -0.2559752 2.2625904 1.7629226 -7.4014745 -1.7249467 0.74504167
终 0.31998503 1.9522693 -0.9170215 0.3733175 -1.7722443 1.6702793 0.5238868 -0.90661615 -2.3865306 3.301582
始 -1.564889 -1.5408179 -5.4364567 -1.7987746 -3.7401428 1.0344712 -0.99104786 -0.16307649 1.8115958 2.5280368
封 0.76367223 -0.50919306 -2.2469456 0.8093938 -1.1388687 0.93364716 0.33031332 -1.5420339 -0.69264215 0.896504
魔 3.6406972 -0.095592834 -0.9310101 1.5357151 3.7974885 2.8024483 2.2812731 0.17410731 -1.18305 3.8601756
给 -0.88273793 0.011345385 2.2354012 -1.8455884 0.4843524 0.22724953 0.8127427 -0.5414775 -1.0074643 0.7786536
W 4.681896 -0.658879 -2.608569 3.9821546 -2.883494 -2.1599233 0.04308282 -0.72669154 1.0602369 1.2143506
曾 0.41397825 -0.1396225 2.4104552 -1.9769728 0.29624113 -0.50619036 1.860835 -0.20990957 -1.6256163 0.76117265
像 2.563654 -1.2759608 0.35194707 -0.63872385 -3.107118 -1.2365146 2.4416509 2.2680955 -2.4512606 -2.497916
迷 0.46611226 0.23769377 1.2788422 0.77590394 1.4274987 3.4676015 0.11046695 -1.4586614 -2.396691 1.2016162
营 -4.1934695 2.155858 -0.5862387 0.15746203 -0.68927217 3.6637616 0.643409 -2.5978632 1.882685 -1.090132
牛 -0.60197264 -0.4350415 0.5625486 1.0820392 -0.14251204 1.3624341 -1.5535306 0.088447385 0.0674034 -0.6417386
村 -2.249726 -0.2994063 1.6198652 -1.5471903 1.7670982 1.3523536 -1.1285022 0.39743087 4.466789 1.5172298
命 -0.4181047 1.709251 1.1034735 -1.0659328 1.7943718 3.0264118 1.9085698 -1.1773452 0.59952277 3.0730126
步 -1.8447605 0.32173702 0.46944004 0.62271905 -0.95324826 1.7573074 -2.856013 -3.0896726 -0.89662236 2.3520546
退 -1.1610562 1.0243007 2.5250514 -1.074902 -0.8645592 2.287493 -0.9114206 -2.2030082 0.36337164 2.1140208
汇 -2.4058692 1.4754745 -1.225075 1.3547179 -1.9267316 -1.8374884 0.12375791 -0.9503211 1.5730139 -1.353993
众 -1.6069223 0.33808678 0.91715616 -1.5820477 1.1610976 1.8780972 1.0845245 -1.427839 0.92851126 1.0390451
配 -0.677657 1.6641431 -1.2672342 1.5463332 -2.7878127 0.75541025 0.71113384 0.07371467 0.5065791 -1.4788284
九 -2.2557364 -0.71083874 -2.4351368 1.7462479 1.9306383 -0.902464 -2.4044616 0.21123342 -0.9117293 1.4223293
妻 2.9954486 -1.4475315 5.194206 -3.6271133 2.3543987 0.44087344 2.142874 2.9097784 -0.20730364 2.9845138
八 -1.9123961 1.0233295 -1.0378649 0.7619989 -0.29020658 0.55221826 -2.1676426 0.68829703 -0.8126038 2.581078
夺 -0.24577034 0.77758914 2.0420744 1.6858039 3.299401 0.47664222 -0.7988429 -2.7706003 -1.6024727 2.8236175
络 -1.8917361 -5.1928873 -4.002872 -3.7153609 1.1146295 2.5802207 0.9020691 -1.9963841 2.2572303 0.09020035
移 -3.1579149 -2.6207876 -2.0144858 -2.0487888 0.6310379 2.3813367 -0.8293626 -3.6572087 3.240202 0.5558718
医 -2.6383402 -0.43128356 2.0269556 -5.3097196 -0.58441734 0.050924137 0.42115125 1.4934871 3.895194 2.5414743
容 -0.9793872 -0.32796827 0.5035081 -0.41186848 0.28006256 1.7036039 1.2131021 -2.5726237 -1.1578621 -0.94734645
刑 1.6009406 3.679394 4.951993 -1.3257276 -4.828399 -0.0965787 -0.981388 1.1770791 4.053184 5.8301115
威 0.9682127 -0.31579918 0.73948264 0.38353133 1.0747145 -0.7387244 4.163743 -3.479544 0.7149899 -2.4258149
盟 -1.4764004 -0.047410186 -0.58167326 0.88276416 1.2326254 -3.299906 -0.64386535 -5.8814197 1.9538862 3.2701335
项 -3.8246639 1.49101 -2.166492 -1.2653741 -3.7428777 -0.32832024 -0.78093356 2.7568464 -1.1900196 0.40026045
播 1.1568083 -3.1376302 -3.6047482 -0.72153425 -0.050489135 1.3103546 0.28719276 -1.9651674 0.34805512 1.6886082
从 -0.86442226 0.53148884 1.0138552 -0.80733323 -0.033961892 0.011980481 0.08931208 -0.16576104 -0.41741657 1.3257827
请 -2.0123656 -0.7937797 2.2164052 -3.6989682 -1.8070036 -3.5789092 0.68670595 0.4151571 0.6125219 -0.15701057
劫 4.46649 -4.2247996 3.9420958 -0.12454095 0.6046122 1.2791803 -2.4787846 1.8312548 0.8054977 0.80896163
唱 -0.50423884 -1.6035935 -3.0870478 -1.3827894 0.8756872 1.6469022 1.6966507 -0.6981146 -1.8923585 1.1461476
印 0.08158626 3.431808 -0.5120486 5.3732696 0.53869295 0.6135371 0.21777424 -4.535048 -1.600725 1.2011243
验 -4.7496624 2.4353883 -3.40716 -2.4957478 -1.554421 1.0702546 3.2929673 0.084929846 -1.2862504 0.61192864
派 0.58978385 -0.2797221 0.06844432 0.36869597 -1.5560458 0.14899428 -0.40287217 -1.228181 0.91148514 0.4848319
角 1.0238333 -3.5366924 -1.3472391 0.055969536 1.3814821 1.2157592 0.55436224 -2.2244427 -0.054447416 -1.2867697
曼 1.372938 -1.427044 -1.4823124 2.3244748 3.0707953 -2.7956986 0.44862777 -3.9984128 0.9728898 2.056066
温 -2.101291 -1.1148683 0.29525155 0.77673185 0.51233757 -1.2236003 -1.0135021 -0.84850204 -1.7388902 -2.0225453
说 0.8095524 -0.4452198 -0.48825723 -1.9273137 1.2532018 0.4054979 3.363591 -1.2776251 -2.1481466 2.0424137
袭 4.1481676 -1.3719267 3.552428 2.275917 -0.29994825 3.3524082 -1.4698479 -4.083871 0.017355373 1.5446916
狂 2.618848 -2.5419924 0.8758247 2.208069 0.15570782 2.5478833 -2.2093222 0.9813673 -3.011799 -0.81514144
确 -0.9062433 1.94313 0.1711377 -0.7956422 -4.521978 -1.8335513 2.3550606 -3.8006144 -0.6487259 0.11998833
K 3.9963756 -0.65818864 -3.2167652 3.8828223 -1.4055573 -2.7574677 0.40983018 -0.46513057 1.2037374 0.85695887
骗 0.08366654 -0.6360737 3.2293222 -3.5858674 -3.4928145 0.6169488 -0.26427057 2.3325734 4.141086 0.47480795
h 7.4672356 -0.79978365 -2.7423997 3.366121 -4.4472466 -2.1038728 2.101623 -0.29046795 0.021612043 2.9557548
酒 -0.29758027 -2.557417 1.1335003 -1.5750993 0.9423796 4.4597473 -1.4382579 2.391255 2.2231202 -0.25566116
父 2.2307177 -2.8554952 4.910972 -5.440261 1.6676171 -0.06590651 2.6863275 2.883749 -1.9122727 1.7925972
器 0.78350604 -0.48937228 -1.4176995 -0.007439892 0.03211109 1.9203184 3.1446495 -1.7825979 1.4286424 -1.3961451
章 -0.76862806 0.46976092 -2.037393 -2.3512921 1.5337026 -1.5899647 3.0005226 4.325699 0.4443321 2.847665
荡 -7.6866674 -4.1674986 0.8158578 -3.1248326 -1.8080308 2.0318673 -4.7446065 -5.3300247 -4.29822 -1.6712195
类 -2.827523 0.6477702 -1.1479721 -1.2256185 -1.7727702 0.52177066 -0.71389544 0.981031 0.25161207 0.8775061
料 0.18486023 -2.879359 -1.0666867 -0.5114541 -3.3502238 0.5206712 -0.41188866 -1.9231137 1.4864054 -2.9390042
m 6.4509983 -5.4771886 -1.8007239 2.2404418 -1.4090587 -3.6965172 -3.2725983 0.83458626 2.349915 3.3200386
杯 -1.0680377 1.9740311 -1.1416079 2.9219527 2.5781536 -0.909009 0.16726911 -1.0170949 -0.06921978 2.2419803
艺 -1.6104404 2.8885763 -2.1042979 -0.9799321 2.5438132 0.28926188 2.8028595 2.6940453 -0.24697185 4.687754
社 -2.6999357 -0.9763079 -1.3703412 -1.3211305 0.32990047 0.18659984 -0.18568975 -1.9602022 3.9168358 0.46620288
属 -2.1829937 0.83880323 0.861493 -0.3998621 -2.0055752 0.45398957 0.87039274 -0.51324755 0.38633636 -2.4784682
临 -1.2457447 0.3830994 -1.0757686 0.2070948 -1.7800245 2.441398 -1.4959781 -1.249286 -1.96922 1.7967942
益 -1.9702455 2.1808794 2.2286222 0.23796313 -3.9753757 0.041832384 -0.5021738 -1.6131908 1.8408854 -1.2636297
满 -1.1696281 1.1838413 1.4540268 -1.5900648 -0.40709075 0.9896262 0.58298206 -0.42840505 -1.6339228 2.1153471
义 -1.1108947 -2.5347536 0.49516138 -2.1904125 0.97617996 -2.1953754 1.578885 -0.14472279 -0.36271507 -1.8650745
康 2.8023815 1.7801516 -0.012635561 4.530865 -1.2380534 -3.0036943 2.6704211 -1.6109117 -1.2334757 -2.1827805
习 -4.6464033 3.2809303 -0.38772362 -2.5461073 -1.3435018 0.33232373 0.4758832 -0.84049374 -1.704397 4.401621
征 -0.5320832 -0.18221337 -0.8878735 -1.1514244 0.63392663 0.4532079 1.4696602 -0.24428281 0.8895668 1.0856625
航 -0.95060354 -2.6284356 0.8957677 -0.3219728 1.4038435 0.33768186 -2.7492173 -2.154005 2.1043658 1.0327911
店 -1.0077851 -2.4368498 -0.1132328 -2.0162897 -0.008318814 4.0962405 -0.67818516 1.8886093 2.6196103 -0.9583694
智 -0.23580508 1.2825027 0.6959751 2.151908 -0.8402801 -1.3116255 1.5287417 -1.9816763 -3.281941 -2.1197505
写 -0.33514288 -1.2284158 -2.513942 -2.4678745 -0.40870786 0.6956841 2.3510323 0.7207674 -2.172909 1.1793927
追 0.09899722 0.28266403 3.5403872 -1.2528462 -0.85979515 1.1054155 -0.742973 -0.65447104 -0.51628894 1.4472233
远 -1.757841 0.14779483 0.70750535 1.5999981 1.5642358 0.097388476 -1.1186948 0.8839345 -2.5093 -0.91618925
仓 -3.7015514 0.3709874 2.1363034 -0.12114794 -3.6872983 -0.48531848 -3.1030586 -2.3772452 -0.16830674 -1.3091644
也 -0.07255806 0.5950465 2.6602862 -0.8414367 -0.34711084 1.1066043 1.0269768 -1.4909894 -2.7387912 0.52140486
激 -1.1845665 0.71451896 0.87925935 0.14979737 0.9262569 4.2347045 1.1236726 -3.612742 -2.6542165 0.34189206
犯 1.9796749 -0.20638946 4.486419 -3.9089556 -2.5601072 2.247665 2.6327322 -1.0470983 2.6937149 1.1548771
构 0.7179597 2.1793835 -1.1919808 1.1611975 -3.89665 3.8945658 2.3563914 -4.6146073 0.88271946 0.39636272
露 1.2813787 -3.565034 -1.0319839 -1.6003734 0.0712968 -0.49643588 2.5666215 -0.017507011 -2.9694326 -2.5233996
坦 0.31831807 -0.09823542 1.0993127 0.29126135 1.3766004 -1.7723871 2.8851554 -4.5015574 0.5851009 -0.14506331
洋 -2.6793752 0.7100731 1.2082446 2.948549 2.3147118 0.88781375 -2.3397791 2.5515556 -0.33096063 -1.8385025
岛 -0.23435329 -1.3622782 -0.03897869 1.6225927 3.2081366 0.7831909 -1.9653901 1.1849821 0.5110465 0.8234295
每 -1.414716 1.0893462 -0.48553914 1.6669219 -1.8959222 0.23702559 -3.4686332 2.9110658 -0.09929334 1.5154285
越 -0.011047967 -0.63025945 1.0444824 1.7536658 1.872803 0.68491304 -1.9127088 -0.14555363 -2.5559983 0.97829473
刺 2.7739613 -3.754433 1.4021212 -1.730003 -0.3607349 0.9320323 -0.90520453 -3.1847904 -1.413013 2.3651204
危 0.29597837 0.6381008 0.7600949 1.1880282 -1.7634735 3.5356953 2.159635 -5.0341396 1.7816261 -2.2598524
使 0.4894453 -2.0623624 -0.49043855 -1.2181982 0.49674138 0.035211764 1.2428325 -0.2590062 1.0562253 -0.49517512
委 -3.954211 0.47485054 -1.9569777 -3.3053732 0.31063372 0.19151242 2.3642275 -3.7786598 2.7912543 2.3968503
诉 1.7050402 1.0902739 2.1792421 0.8944697 -1.5801191 1.268359 -0.08704834 -0.21004482 4.497529 0.7700412
私 -0.8592194 -1.4670408 0.41876012 -2.6762774 -3.1177785 0.033867456 0.112997025 2.0181737 1.7926705 -1.6100417
种 -2.274394 -0.2725666 -0.43226737 -1.0823971 -0.26512095 1.5968866 -0.9641638 1.4576828 -0.15856066 0.24914214
列 -0.05721642 1.5728039 -0.4667974 1.8247397 0.5759967 2.9265604 2.4826412 -4.127021 0.8815213 -0.29220623
早 -2.1156907 0.3697625 -2.1459873 0.6408591 -3.4941216 1.5768306 -2.7778482 -0.8749982 -1.2317846 1.4767197
汉 0.018086996 -1.2651032 -0.5298675 -0.23696668 3.304271 -0.08258845 1.8888607 1.7846217 1.8760763 -0.7097794
夏 -1.6859515 -0.9116307 -2.6854196 2.2408535 0.81438553 -2.5697575 -1.2517056 -1.5406232 -1.135221 -0.12778129
常 -2.1333616 0.7216262 -1.2693233 -1.457254 0.3675777 1.1467975 1.8955169 -1.470376 -0.41208363 1.0264329
典 -4.621009 2.2863703 -2.1377597 -0.06252379 1.2241886 1.1336119 3.0905678 1.3548771 -1.6676633 -2.207618
恐 2.4018047 0.018057635 1.5889158 0.3993278 -1.7508285 2.4820633 1.8381727 -4.124265 -1.7040434 0.18538179
换 -0.251354 0.50503325 1.5203862 0.62830806 -0.77054995 1.3340943 -0.36242026 -2.06297 -0.72118485 -0.001892761
皇 2.775503 -2.0246916 1.512273 2.4130216 5.098993 -0.54311603 -0.08533347 -2.1872425 -2.0533273 2.00453
治 -2.8002794 -2.025705 0.9527344 -5.376076 0.25482848 -1.6992444 1.2598155 -4.355122 0.42232803 2.4805682
额 -1.7602462 0.7108425 1.0979131 0.6409876 -5.689301 -0.7745929 -3.1530786 -1.738786 2.6429527 -0.42983449
童 0.33688608 -0.017581237 3.6067643 -2.1943614 3.7044005 2.3705664 1.9719304 3.5647573 -1.124189 1.4710537
音 -1.1564354 0.82959247 -3.7911174 1.3864303 0.52536803 1.9773968 2.499974 -0.081595436 -2.3511965 -0.7788331
范 -1.8778049 -0.7392415 -0.82183665 -2.1716251 2.0750768 -0.4966827 2.7705438 -0.8401032 -0.45257723 -0.02259276
软 0.5668691 -2.6833382 0.20287883 -1.4664067 -1.9042281 0.22994408 3.2417922 -2.7551568 0.92171305 -4.726203
募 -1.6187848 0.81702954 0.057157576 -0.6649543 -3.1413786 -0.32679203 0.020285456 -0.29105005 5.776576 -0.691646
必 -1.0983821 0.9498959 -0.2683822 -2.2647662 -1.9432153 0.19972794 0.44894594 -1.8536538 -2.0579362 3.981694
菲 1.9885021 -0.5157754 3.3924122 0.117483355 2.6688619 -2.6577432 3.730927 -0.28429654 0.35801643 -1.7629665
c 6.6121054 -3.7148895 -0.9741562 0.6402967 -3.5420654 -6.126909 -1.1520544 0.3274403 -0.84399486 5.4952126
土 -3.355892 -0.72144574 2.3853068 -0.6482846 0.8044826 1.6275197 -1.162315 -1.7983621 1.1495343 -2.080483
补 0.22575128 0.026614882 2.1451545 -1.4796704 -3.2088253 -0.85563755 -0.28865463 -0.054245036 -1.0751001 0.33599392
迎 -1.108149 0.5388899 -0.10254527 1.1375371 0.95754576 1.6979246 -1.5731554 -0.15504979 -3.4075193 2.0688803
拒 2.4709058 -1.4995682 4.1692824 -2.7017393 0.45969215 0.19567679 1.7314193 -2.2033877 0.75202304 1.9337096
荐 -1.7913809 1.3908944 -5.600304 2.2616146 -2.8778605 3.7382798 -2.0772219 -1.1706345 4.810542 3.2548087
包 0.6291486 -0.12274991 2.1523936 -0.064463556 -0.06767321 3.1427317 0.2873722 1.3494687 0.56865376 -1.0717272
阵 -0.14000337 -2.5628338 0.846954 -1.2665163 1.0560302 0.4587532 0.49253094 -3.0113328 -2.0029933 -0.49178568
才 0.79795456 0.05255538 1.2409973 -0.7180385 0.52150625 0.18605313 0.9016188 0.19317484 -3.9523969 1.9993414
篮 -1.8784896 -1.4020226 2.076291 -2.318603 3.8227644 3.5952806 -0.5128002 -1.0967536 0.43072963 2.0707266
街 1.2455586 -1.0466273 1.2970951 1.8842951 1.9029663 2.2838693 -0.006574374 0.11242551 -0.25571004 -1.6034075
承 -0.035359584 -0.3858177 2.9883745 -1.3747605 -1.3850187 -3.3487346 2.8520732 -2.5119793 -1.0003124 -2.6163483
闻 0.22280811 -0.63884354 -2.5296283 -2.0037496 1.9934746 1.5259486 5.6969857 -1.2984788 -0.6701328 0.13836761
嘉 -1.8254344 0.47173965 -0.77930415 0.052691076 1.5659393 -3.2841983 3.0580854 2.9503014 -1.5325384 -2.296967
极 -0.9765223 -1.1209388 -2.0572045 -0.09323588 -1.6436241 2.640339 -0.508877 -0.20876266 -1.9939071 -0.7085022
惊 1.160996 -0.5895721 0.18225987 1.4389836 1.068351 3.6956763 0.367578 0.21260287 -3.7186346 -0.42771375
毒 1.3112223 -2.0685217 2.8357964 -2.7255847 -1.1706492 3.7214043 1.4318935 0.34605584 2.5603063 -1.536068
萨 1.8772063 2.0013022 3.8204627 3.9099646 1.6205306 -2.344483 0.8156361 -3.867358 0.8143995 0.5476984
炸 5.233224 -2.0827253 1.6616318 0.8962583 -2.890772 5.319922 -0.57397205 -1.8960134 2.75139 1.3353486
古 -0.08665379 0.19075002 -0.11411018 2.0510035 2.827995 0.61614907 1.3572135 -0.7966718 -0.76454043 -0.9742216
响 1.2585579 -4.1333227 -3.2162158 -1.823286 -0.9197098 2.8851957 1.6108729 -2.420278 -1.3212986 -0.6537565
史 -0.98372453 -2.4548616 -2.4551563 -1.6761907 1.2255766 -2.065457 -0.51587206 0.28980798 -3.4730568 2.8473456
各 -3.4361706 1.4412214 -0.44800147 -0.5674413 -0.055751257 0.26711857 -0.48774126 -0.4091744 0.2955544 1.261425
轻 0.64767814 -0.5740525 0.31635374 -0.10469273 -2.018492 -0.8518783 -0.78657013 1.5543199 -3.0515249 0.3477276
托 0.55014324 0.520403 2.39202 1.1865766 1.5718634 -2.209184 2.0747972 -1.7514907 3.24798 -1.4419498
归 -2.352811 -0.2421443 2.4120443 -0.82401735 0.34743807 -0.6392527 -1.0780396 -0.8175783 -3.1604133 -0.08515976
倒 -0.5336257 0.31643263 0.21028502 0.01047001 -2.16939 4.2936006 -1.4362715 0.6521187 0.24245757 0.38672698
七 -1.5961318 1.1614134 -0.6914536 0.93328184 0.113074265 0.7952665 -2.2047398 2.429995 -1.4577919 2.5085409
丽 0.17405643 -0.9353063 -0.4173703 1.8129183 3.1125934 -2.2604632 1.7594386 2.158419 -2.2157404 -2.2055287
思 -1.243359 0.8657419 -0.6684441 -0.47594005 0.58704937 -2.8902128 2.7228298 -0.16560468 -2.9033835 0.0352828
瑞 -2.009882 -0.78894556 0.25822932 1.0244744 2.73541 -2.567421 1.1998326 -2.268641 1.9518253 -2.4483035
彩 0.55993575 0.18792877 -1.9929086 2.1690426 1.068911 3.5657814 1.2509139 0.9455426 0.6612095 -1.1062406
历 -4.3327365 2.433698 -0.9254321 -1.2615074 -0.39931896 0.25426713 0.31160924 3.2510233 -3.9789698 1.3401812
练 -2.189982 0.51261646 0.065596625 -3.8949182 3.0739114 1.6031213 2.3999927 -1.0950717 -2.097732 4.903017
副 -3.5859976 1.661864 -0.84330666 -1.1343663 0.2179789 -1.0166906 0.9805592 -2.8461728 3.9864626 2.1959424
朗 1.4994652 0.73390716 0.49146804 1.1821022 0.10221473 -3.0742033 3.214876 -3.5024655 0.9399267 -0.042023618
央 -3.063105 -3.482615 -3.9683547 -2.1794338 0.16897172 0.46559736 -0.54266787 -1.7997289 2.9317238 -0.16340186
剑 2.146745 -3.4252024 -1.6246393 0.9659993 3.2829382 0.8088022 0.05400691 1.10539 -1.5980384 0.5511183
枪 3.1961079 -2.313685 1.4986848 -0.5625452 0.09109315 2.4360473 -0.08020304 -2.5060093 1.0248932 2.0407817
倍 0.7047928 -1.4829206 -0.43928403 0.548294 -3.5372984 -2.0669446 -3.669452 4.6886983 -0.8899397 0.7775703
拿 -2.0068898 -0.29581848 1.8071036 -0.42601776 -0.20661196 -1.1317457 -1.9648678 -1.5669683 -0.54146945 0.8593352
很 -0.49731916 -0.29078344 1.5043066 -1.591395 -0.55828756 0.2978433 1.2457554 -0.93142575 -3.9648948 0.1848406
跳 -0.925223 -2.8658538 0.7149814 -0.26862183 0.35102886 3.2732008 -3.4196947 2.6815295 -0.37718758 -0.7998273
浪 -1.8022742 -1.0635796 -3.3233237 0.4379728 0.7295418 2.414335 1.3979168 -0.24766544 -0.4427962 -2.090355
败 2.11578 -0.68371266 4.0628448 0.024404498 -0.29648662 0.8597624 -1.4041803 -2.2362077 -1.3713589 2.1747587
声 -0.22757901 -0.7691845 -1.2977527 -0.23589395 0.9819914 0.9067162 1.5496498 -1.1166613 -2.9281306 0.20607586
围 -0.43380576 -0.53146553 1.70287 0.08392966 1.5693138 3.5014377 -0.74894756 -1.658476 0.95217013 0.5993206
陆 -0.4357753 -3.1002183 -2.3370528 0.07684357 1.3797321 -0.69496435 -1.6100209 -1.8632114 0.22058764 1.4562547
稳 -3.5458317 2.1173556 1.2504028 1.1852428 -3.4129064 -0.5728407 -0.65996885 -2.2140222 -0.70504826 -2.6373882
促 0.6469555 1.1612341 -1.3254656 4.2267675 -2.5097904 2.4086342 -0.78898937 -1.9329079 1.5924718 -1.6032883
硕 -0.57801694 -1.9956433 -2.0518422 -2.0650978 0.4942515 -6.823377 -0.35021016 2.4338982 4.3307905 3.8251932
澳 -4.6806993 1.9764917 1.7701354 1.6762692 1.8761094 -1.7159903 -2.2200303 -1.2902268 2.2597532 0.26424286
午 -2.1052446 -1.3607583 -3.8557816 -0.20283659 -4.7026577 3.2518973 -4.6188235 0.14975463 -1.6626087 2.878479
雅 -0.64986354 0.96348614 -1.2667078 1.345136 1.3720846 -2.4833167 2.3520737 0.08115536 -4.1442647 -0.28774217
币 -2.3372831 0.3770343 1.6748956 1.3094726 -2.6297503 1.696057 -3.182813 -2.7071002 5.4267435 -1.1133672
馆 0.12592642 2.2537022 -0.84142095 2.3116627 1.4147135 3.03811 1.280506 0.6970338 5.0364532 0.85997784
钢 -2.233648 -2.6431992 -0.10799834 -0.3835021 -2.4560182 0.67842156 -1.9179578 0.5544378 -0.25584194 -4.2009616
逃 2.1419153 -1.582892 3.6603186 -1.9397911 -2.6097422 2.9903982 -1.8464992 1.5628997 1.814853 1.5014355
宅 -2.955749 1.0116665 3.1380093 0.31153414 0.84832966 2.6736407 -0.66974515 3.7355835 1.6473402 -3.2268457
箭 2.0538063 0.47504017 2.4770083 3.3127732 1.7883576 4.996895 -1.1605953 -2.991787 -2.0671113 1.7904621
撞 3.9078584 -2.5052316 3.8905888 0.32273287 -0.7427265 4.5425563 -2.6876307 0.49023563 1.6299666 1.7208495
携 1.7304903 -3.454966 -0.09189884 -1.1665013 0.5045014 0.29297417 0.42741555 0.45389727 -0.57117367 -0.72299045
谷 0.31932744 1.1873196 -3.666002 4.25064 1.1322315 1.8990515 1.6008556 0.7552377 -2.0773914 -1.4220675
锋 0.35862443 -1.7186825 0.25159192 0.10928026 1.7815156 -1.1829962 -0.50808245 -1.9765134 -3.0481393 1.8306916
竞 -0.49876663 -1.5168766 -1.3806409 -0.79358 0.7552686 -0.36812726 0.73266935 -3.2820349 -1.1082169 1.2719133
止 0.39616606 -1.3099409 2.0940163 -2.165516 -3.3201818 1.1208824 -1.5782872 -2.6511834 1.2397143 1.7799859
状 -2.9302273 3.0131168 0.6960296 -0.65776026 -2.9481225 -1.6291364 1.4623715 1.890229 0.14205973 -1.355196
榜 -0.71472377 -0.66250193 -1.5622087 0.39234644 0.17585059 1.7815293 -1.330904 -0.9249403 0.6631281 1.6945558
雄 0.8022445 -0.099277355 -1.1681075 1.5402027 4.7109866 -1.4025247 1.0797764 -1.2657393 -1.3070924 3.9907234
跑 1.5832593 -1.8606541 2.2082083 1.7923912 -0.34711534 1.0555927 -2.3898306 -1.4988617 -1.0323716 -0.720879
夜 -0.16663034 -2.0801609 0.26499847 -0.50620145 1.0813309 2.3400202 -2.343375 0.8295097 -0.94731104 1.6057476
恒 -3.2573025 -2.1159055 -0.986274 -1.2332565 -2.0279446 -2.4024742 -1.3072151 -0.85145634 -1.7480564 -2.0218334
供 -2.9104314 1.4147801 1.4623414 -1.3112094 -3.2633278 0.43306544 -0.7165547 -3.4798496 0.85880935 0.69302845
森 2.771927 0.109774336 3.593005 2.3377311 1.890188 -3.548689 2.1947894 -1.4581023 0.17414556 -1.1210918
幻 3.9720685 -2.1755066 -2.9724486 1.2092752 3.0164356 0.72364014 0.93488353 2.2068355 -5.4798884 5.130833
郑 -0.9891924 -1.6994356 -0.3601973 1.6284734 -0.9992067 -3.745358 -0.35606182 -0.17598979 -3.1616004 -3.8447666
并 -0.40331775 -0.15451768 1.1828386 -2.0133452 -0.8690265 0.22708844 1.5937847 -2.654277 0.9458007 0.83796054
共 -1.8395896 2.3242533 0.21341181 0.3174208 -0.01258989 0.542144 0.84696823 -0.03445518 1.8089268 0.7154286
令 0.49461395 -1.1623099 1.3101592 -1.4320076 -0.7639342 -0.34223238 0.40444052 -2.2286096 0.8424617 0.68360704
审 -1.0873272 2.763112 -0.1765129 -1.8037791 -3.8869154 0.64710706 1.372894 -2.5803273 1.5342327 3.482735
延 -2.2020543 -0.4523923 1.687988 -0.8123074 -2.7399745 0.36161178 -3.7803133 -2.487794 0.04081563 1.8635174
诺 1.0851786 0.12556975 2.6496797 2.1522763 -0.16472673 -4.3352175 0.79110956 -4.8890877 0.28611723 -0.848845
焦 -1.9280981 -1.2076331 -0.3057542 -0.7633049 -1.8700736 -0.14024012 -0.6375285 1.2287363 -3.659891 -1.9886491
态 -1.9685938 1.2648045 -0.40541905 -1.061727 -1.9633265 1.0880443 2.2447119 -2.9378128 -2.299654 -0.37676224
素 1.6109526 -2.16387 1.9041632 -2.062172 -2.830153 -1.9754628 1.8570192 2.0061471 -1.1750523 -3.1595325
施 -2.4442897 -0.45386836 0.28478366 -2.766223 -0.82336235 -0.106118016 3.2455552 -3.1693997 0.48423848 -2.136978
? 0.4694611 0.14565818 1.2945982 2.0059576 1.9707814 -1.4889922 0.22027902 1.4594443 -2.1373801 -0.7672547
涉 0.30568483 -0.34839302 3.4606493 -3.0525935 -1.4256827 0.64845705 2.1018915 -0.80058855 3.7987702 -0.43655154
赔 3.7508502 -0.15483606 5.952471 -0.6078353 -4.6209793 -3.6088438 -0.1664482 0.14144337 3.5295873 0.10713722
置 -4.2045007 2.4671094 0.15750521 0.49229988 -1.574479 1.0165486 -0.65237945 -1.0566959 1.5309777 -0.7705428
免 -0.56163067 -1.290305 0.39059016 -4.143068 -4.698214 0.16161415 -0.10016552 -0.35755312 2.284952 1.4798714
杰 1.1051974 0.9425159 2.378139 4.445153 3.2022667 -2.9887424 0.060325574 -1.3302944 -3.9142482 0.050165486
护 -1.2297845 -1.5350889 3.9900167 -2.6269214 0.49524406 -0.23965189 0.29319385 -1.6490074 2.1732037 -1.146098
哥 0.2663467 -1.2355726 3.0918484 0.57139665 3.1202326 -1.395661 -0.8108839 -0.7732269 -0.36834797 0.60795254
宁 -1.3154892 0.8657271 0.5364838 1.8008503 2.8213074 -2.9198208 0.110033825 0.43453422 -1.8242171 0.39301437
庭 -1.7476178 0.54679304 0.03685989 -2.0102031 0.3662473 0.912043 1.0403944 0.27622083 2.4207985 1.5644473
裁 0.05923528 1.9341075 1.4990419 -1.6638602 -1.5011158 -1.3555719 3.2152326 -4.000658 3.2321448 2.2491465
兵 1.3159018 -1.5017323 0.973876 -1.4089832 2.3572836 -0.31766427 1.0222213 -0.17823556 0.43898565 2.2694669
然 0.8733949 0.010426128 4.170581 0.60235 -0.45179933 1.473831 0.38878608 -1.2942773 -4.4375286 -1.7087691
探 -0.5535878 -0.27409643 -0.15324114 -0.97963107 0.6556801 0.10013717 0.551737 -1.1098794 0.43049407 1.5218635
边 -0.93157506 -0.5889782 -0.64655966 1.1283135 1.2743845 1.8709567 -1.7163552 -0.6325951 -1.2058864 1.1905085
y 3.3150687 -2.2042956 -2.1624107 0.27438992 -1.2502435 -3.1448545 0.9708786 0.294975 -0.13163912 1.887598
条 0.7115617 0.44923902 1.2231927 0.34554017 -1.9758039 0.30866742 0.3701805 -0.45957527 1.9660562 -0.7273381
画 -0.724532 -2.1638224 -3.314769 -0.5623903 -1.2187704 2.1248252 1.0553045 -0.3057162 -1.0156906 -2.0002856
谁 0.42052504 0.073736764 2.19106 -1.1987158 -0.12429963 0.6668386 0.97248447 -2.3445914 -3.7603874 2.0631726
血 1.8264439 -2.6158583 0.97246397 -0.27021623 1.4677715 2.4364867 0.71064216 -0.5726635 -1.7621478 -0.8885615
伦 0.6042497 0.60028124 1.9855155 4.37575 2.2841122 -3.045684 0.24636693 -2.8696845 -1.934378 -1.4744755
峰 -1.0939511 -0.9264313 -2.4375334 0.22042188 1.3002288 -2.2946944 1.0794631 -2.3936853 -2.511391 1.0816553
雷 2.1975777 -0.742393 1.8599532 1.5222527 2.849751 -1.3253138 1.8999567 -2.3916104 -1.4055165 -0.15475097
缺 -1.5409462 1.7914252 2.9385064 0.4516784 -0.33266276 2.4846005 -0.12970494 -3.0059948 -1.3021092 0.092081085
喜 0.037960477 -0.07036189 0.18972248 0.53315824 0.8760186 1.8199792 0.4745811 0.9157975 -5.414535 0.35852405
紧 -1.8747423 -0.10419902 2.7962923 -1.035332 -2.3248098 0.12366733 -0.6541366 -2.064315 -1.2849183 -1.7479197
象 0.14839652 -0.2471217 -0.80351186 0.54093283 1.0400916 2.6361003 1.9239694 -2.3714874 -3.5260143 -0.10077645
绿 -1.4540558 -1.1790845 -0.101170175 2.7761374 3.0913925 1.7988129 -0.3689166 -1.4615576 -0.3825483 -2.9744701
摩 1.4429264 -1.4047823 1.3761743 0.65409166 0.57666975 -2.563691 1.3294986 -1.6156119 2.9842768 -1.6690048
盗 0.9386558 -3.598972 1.8520511 -1.8883038 0.25873712 2.481055 -0.9949721 0.6981319 3.398701 -0.8810034
锦 -3.559546 4.619843 -2.0337303 5.337818 3.021131 -1.8068874 0.7930423 -1.9283882 -2.6041806 1.5188972
妇 -0.583275 0.54375315 5.7843356 -2.836231 2.634191 1.3927779 0.9739816 3.495688 -0.472596 1.2374496
谢 0.87130773 -1.0798603 1.1373516 -1.621091 3.407955 -1.4073822 4.2414527 -1.6229028 -3.3818886 0.4285881
潮 -0.8241561 -1.453405 -0.8299641 -0.02294901 -0.80274564 3.0397673 -0.8420121 -0.24775515 -1.7784209 -1.0423995
念 -1.2690223 -3.3016698 -2.7829375 -2.964249 -2.7340934 -4.0877476 1.348938 0.0033089388 -1.8247888 -1.6954186
恋 0.40909418 -1.1731633 0.8314859 -2.2999287 1.7756457 1.9638997 2.2929907 0.92679065 -3.590019 0.98477334
形 -2.1223042 1.2585669 -0.48837137 0.33573258 -0.52346885 3.0172668 2.0663266 -2.1325293 -3.7777798 -1.6763359
冰 -0.14082493 -2.4976785 0.12947306 0.6484535 2.6480002 3.0050118 0.47771665 1.7088572 -3.3305469 -2.9279182
刀 3.0358677 -2.1888373 4.53622 -0.7099706 -0.3561751 1.253377 -2.1142023 0.21919599 0.4952936 1.7342055
据 -0.83538383 -1.2105387 0.5762952 -3.518062 -5.936169 -1.3157786 -0.3753043 -0.48465994 -0.37555367 0.096735656
灵 1.6815059 -0.54147416 -1.6452991 1.9339119 2.68078 2.3590033 2.2248607 0.47483954 -1.2501805 -0.33417282
甲 0.18926564 -0.10064622 0.70012546 1.8976456 1.3080497 -0.34221128 -0.24851781 -1.4392931 -0.08736861 -0.2910314
松 2.188043 -3.6429229 -0.4545275 0.023453824 -1.7271211 -0.4658235 -1.4516375 -0.92227143 -2.5999186 -0.33074653
润 -3.9850116 2.0401244 2.30091 3.8485038 0.13665566 -2.6497164 -2.8463798 0.04970799 -0.70065045 -2.6158483
境 -1.2919278 -0.96117836 0.389724 -0.09827861 2.009435 1.9973279 -1.1240495 -1.105566 -0.12324825 0.9442942
弃 0.40077606 0.8189415 1.0283625 -0.9522694 -1.0029953 3.3356068 1.352955 -0.5285196 1.1128194 0.83311385
欢 -0.5058504 0.7855601 0.2323992 1.2879376 2.039398 3.4743383 0.43588275 1.3973638 -5.1109176 0.53704494
字 -0.94857585 -1.0643859 -1.74972 -2.1001728 -1.8243804 0.90653133 -0.7504452 3.4390903 -0.81042635 1.3026011
b 6.6669545 -3.8743443 -0.5299283 0.28038633 -3.612425 -5.7268257 0.32241368 3.4389977 -2.1817262 2.5200686
仙 3.5092707 -2.9488225 -2.461487 1.3420944 3.5233598 1.6201552 0.42177352 2.3942208 -0.47896707 2.5150745
顺 -4.307687 1.0628806 2.362601 -0.98247933 3.6727562 0.565508 3.29546 -1.2285607 0.21117726 -3.2296283
样 -1.320282 2.4734516 1.2294745 0.9510908 0.7756742 4.0859256 -0.194098 2.1643665 -1.9752815 1.2038354
射 2.589221 -0.37484112 -0.40258634 1.6849624 -0.56961095 3.1779547 -0.2889602 -1.4736352 -0.67925113 1.6071999
端 -1.695761 -1.4690553 -2.659049 -1.067302 -2.314179 1.8455518 -1.5572968 0.16700968 -0.6260018 0.6094474
u 8.608731 -4.8359118 -2.1179516 1.2757121 -1.7376399 -5.5865574 1.5433482 0.9320675 -0.08522002 3.7261794
堂 0.07775746 -0.16222063 -0.97776973 0.6682313 2.3933644 0.61529386 -0.21344863 2.5466578 -1.3721741 2.0766652
